#pragma once
/* Auto-generated weight declarations — precision: f32 */
/* Mode: embedded */

/* embed_tokens.weight: shape=[512, 64], numel=32768 */
static const float embed_tokens_weight[32768] = {1.646296866e-02f, -1.466212980e-02f, 1.156848017e-02f, 3.362586955e-03f, -1.444110461e-02f, -1.675735041e-02f, 2.364528924e-02f, -8.551245555e-03f, -2.269546501e-03f, 1.936759986e-02f, -1.526136231e-02f, 1.984909363e-02f, -2.116359398e-02f, 4.995384370e-04f, 2.609135117e-03f, -1.661707088e-02f, -1.890836470e-02f, 3.204651549e-02f, 4.368651286e-02f, 2.734068548e-03f, 2.943923324e-02f, 1.644403301e-02f, -2.454579994e-02f, -2.881330438e-04f, -1.500552148e-02f, 2.553624287e-02f, -4.981570877e-03f, 1.932210848e-02f, 3.081145138e-02f, 1.092574932e-02f, 2.481138892e-02f, -3.826536238e-02f, 2.167866565e-02f, -4.573431332e-03f, -3.346161172e-02f, -2.542274818e-02f, 7.702390198e-03f, -8.248956874e-03f, -2.201084979e-02f, 9.497258579e-04f, -1.559916791e-02f, 2.253120765e-02f, 2.440904081e-02f, 3.206780925e-02f, 7.526367903e-03f, 1.911116531e-03f, -2.601934364e-03f, 2.350493707e-02f, 1.821838133e-02f, 1.538280048e-03f, -2.592115104e-02f, 1.695936732e-02f, -5.411318503e-03f, -2.813477069e-02f, 1.080359449e-03f, -1.285722479e-02f, 2.682569996e-02f, 1.986016519e-02f, 6.836851593e-03f, 1.251543034e-02f, 2.572984248e-02f, 5.510436837e-03f, -4.478253890e-03f, 2.355446853e-02f, 4.128113389e-03f, 1.602016948e-02f, -2.134780632e-03f, 2.240031026e-03f, 6.928024814e-03f, -2.983463928e-02f, -4.440020025e-02f, -2.619656269e-03f, -1.340280753e-02f, -4.224388674e-02f, 1.549752336e-02f, -2.576440759e-02f, 3.068408743e-02f, 1.633640938e-02f, -2.659338899e-02f, -1.250815112e-02f, -4.871333018e-03f, 2.034293674e-02f, -1.195973624e-02f, 3.066014498e-02f, 3.159931162e-03f, -2.264904417e-02f, -5.545447115e-03f, 5.792690907e-03f, 1.691228524e-02f, 4.062686861e-02f, 4.927351605e-03f, -1.505070087e-02f, 7.313179667e-04f, -1.496094186e-02f, 2.682714723e-02f, 2.250782587e-02f, -1.270336378e-02f, -8.681847714e-03f, 2.563377842e-02f, 1.486807689e-02f, 7.484891452e-03f, 2.345973160e-03f, 5.113546550e-02f, 1.629874483e-02f, 7.957152091e-03f, 7.918312331e-04f, 2.913437784e-02f, 2.216808789e-04f, 1.316149905e-02f, 3.943793476e-02f, -5.727404729e-03f, -1.724441163e-02f, 4.271681886e-03f, 1.320554968e-02f, 2.472900599e-02f, 3.416812420e-02f, -8.025358431e-03f, -3.124826774e-02f, 2.268097550e-02f, -2.374881506e-02f, 7.460485678e-03f, 1.438318193e-02f, 2.029344067e-02f, -2.019149438e-02f, 1.411286648e-02f, -1.122875512e-02f, -4.689987004e-02f, -1.294035651e-02f, 3.163288161e-02f, 1.172217820e-02f, 1.349502429e-02f, -2.128125541e-02f, 2.734080888e-02f, 1.294504106e-02f, -1.702070795e-02f, -4.048980772e-04f, 1.079490036e-02f, 4.557009414e-02f, -1.172836870e-02f, -5.762582179e-03f, 1.172618475e-02f, -1.005222462e-02f, -2.289222926e-02f, 3.176707774e-03f, 4.108156636e-02f, 3.217860591e-03f, -4.150775727e-03f, -1.091061439e-02f, -3.359912708e-02f, 1.482365094e-02f, -2.653826587e-02f, 2.140079392e-03f, 1.646975614e-02f, -2.984297648e-02f, 1.014882978e-02f, -2.092760056e-02f, 7.772997022e-03f, -6.556839217e-03f, -2.353961580e-03f, 1.771723293e-02f, 1.654221863e-02f, -1.654602401e-02f, -2.273418196e-02f, -6.842811126e-03f, 6.573784165e-03f, 2.242977172e-02f, -6.927631330e-03f, -2.983115427e-02f, 1.102421060e-02f, 2.618968114e-02f, 1.302456856e-02f, 5.398218520e-03f, -1.037684456e-02f, 1.585059799e-02f, 4.860962741e-03f, 2.391532995e-02f, 2.117883787e-02f, -9.640116245e-03f, -3.555176035e-02f, 1.049612742e-02f, -4.328690469e-03f, 1.568164909e-03f, 2.485518716e-02f, 4.232679959e-03f, -1.706215180e-02f, 1.303739287e-02f, 1.223274693e-02f, 2.138284594e-02f, -1.789053902e-02f, 1.520634722e-02f, 9.421875700e-03f, -4.880318884e-03f, 1.390894875e-02f, -5.677985027e-03f, 1.572283171e-02f, -1.141961291e-02f, -6.269550882e-03f, -6.976102944e-03f, 1.957772113e-02f, 2.214207128e-02f, 4.249445628e-03f, -1.652356051e-02f, -1.709911972e-03f, 1.114385575e-02f, 1.987663656e-02f, 1.244832575e-02f, 3.223636420e-03f, -4.563394003e-03f, 2.273363806e-02f, -1.488696039e-02f, -6.743567530e-03f, -6.171384361e-03f, 4.004261270e-02f, 3.770565614e-02f, -4.508273676e-03f, 2.027787454e-02f, 1.326298807e-02f, 3.206330119e-03f, -2.116690576e-02f, 1.466708351e-02f, 3.469339805e-03f, -4.237933550e-03f, 6.055900827e-03f, -2.319090068e-02f, 4.817460477e-02f, 3.370554373e-02f, -4.153090063e-03f, 1.915183384e-04f, 1.124166790e-02f, -3.604943678e-02f, -6.607466377e-03f, 2.245480567e-02f, 8.641987733e-06f, -1.418650150e-02f, -2.958133817e-02f, -1.517611672e-03f, 1.619670726e-02f, -4.124342464e-03f, 2.417401038e-02f, -2.492784755e-03f, -1.012146473e-02f, 2.225210657e-03f, 4.860100336e-03f, 1.446010638e-02f, -1.441995613e-02f, 1.257522218e-02f, -2.181049809e-02f, 3.027138673e-02f, 9.479733417e-04f, -1.415296271e-02f, -2.838414861e-03f, -1.907964051e-02f, -3.417383879e-02f, 9.695467539e-03f, 2.265422232e-02f, -1.918115839e-02f, 3.493278637e-04f, -1.530580968e-02f, 2.079242095e-02f, 9.934312664e-03f, 2.634379640e-02f, -2.785992995e-02f, 1.612748136e-03f, 2.496141940e-02f, -2.423790842e-02f, -1.789815724e-02f, -2.143973112e-02f, 6.274240557e-03f, 7.804443128e-03f, -1.514755841e-02f, 7.215766236e-03f, 1.811406389e-02f, -2.098846808e-02f, 2.581117488e-02f, -1.658450812e-02f, -5.351493135e-03f, -2.214920678e-04f, -9.679226205e-03f, -1.289929356e-02f, -1.211174298e-02f, 1.992183737e-02f, 1.416543964e-02f, -1.973898523e-02f, -1.790371537e-02f, -2.355423197e-02f, 6.871618330e-03f, 1.621358842e-02f, 4.871176183e-02f, 2.557240659e-03f, -1.265218388e-02f, -2.044058591e-02f, 6.190559361e-03f, 2.574418485e-02f, -1.731780171e-02f, -3.304626793e-02f, 2.301266789e-02f, -3.746259725e-03f, -2.512529492e-03f, -4.731006920e-02f, 5.235770717e-03f, 3.215566976e-04f, -5.407358985e-03f, -1.704551466e-02f, 7.911124267e-03f, 5.208707880e-03f, -1.744186878e-02f, -2.415564470e-02f, 2.117921971e-02f, -8.495025337e-03f, 6.883523893e-03f, 3.027637256e-03f, -7.251698989e-03f, -4.764744639e-02f, -3.165011853e-02f, -1.336446963e-02f, -1.326607168e-02f, 2.269387990e-02f, -1.890882384e-03f, -1.535738353e-02f, 1.095814444e-02f, 2.190511115e-02f, -4.085757211e-02f, 1.064488105e-02f, 1.007271186e-02f, 1.666762121e-02f, 1.839491160e-04f, -1.905617118e-02f, -4.854712170e-03f, 3.694860963e-03f, -5.195416510e-03f, 1.317659114e-02f, 6.149599329e-03f, 4.139204044e-03f, 5.792894401e-03f, -1.340792235e-02f, -1.223113760e-02f, -2.135737054e-02f, -1.290354133e-02f, 1.909025200e-02f, 4.003466456e-04f, -1.810664311e-02f, -1.074480638e-02f, -1.418324932e-02f, 1.201375108e-02f, -2.758588269e-02f, -2.267123573e-02f, 3.589334199e-03f, -4.261303321e-02f, -6.866371259e-03f, -2.118546516e-02f, -1.687125489e-02f, 8.767265826e-03f, -3.128693253e-02f, 5.694238003e-03f, 1.984083839e-02f, -6.533222739e-03f, 1.638880372e-02f, 2.377325203e-03f, 3.145981580e-02f, 1.032565534e-02f, 1.744587347e-02f, 3.001477569e-02f, 1.273900364e-02f, -8.455846459e-03f, -1.086474676e-02f, 1.385421026e-02f, -8.658451028e-03f, 2.472514287e-02f, -5.526962690e-03f, 8.285281248e-03f, 6.316677202e-03f, 3.360056505e-02f, -1.562929526e-02f, -2.292977460e-02f, 1.153928693e-02f, -1.599626429e-02f, -3.367516212e-03f, 1.206402760e-02f, 1.127938647e-02f, 3.454748914e-02f, 2.101747319e-02f, -5.771117751e-03f, 2.550635114e-02f, 2.034389041e-02f, -8.777058683e-03f, -1.052240096e-02f, -2.640419453e-02f, -4.533657059e-02f, -1.662908681e-02f, -2.810304612e-02f, 7.179919165e-03f, 2.390632033e-02f, -2.811420709e-02f, -9.493312798e-03f, -2.851333283e-02f, 3.851076216e-02f, -1.006604731e-02f, -1.740077510e-02f, -6.372217555e-03f, 2.415149938e-03f, 2.108446322e-02f, 9.553103708e-03f, -1.343549322e-02f, 2.545574389e-04f, 7.870830595e-03f, 1.792507432e-02f, -2.522443794e-02f, 3.613133729e-02f, -2.356371284e-02f, -1.621747948e-02f, -1.928338222e-02f, 3.673109040e-02f, -1.252191490e-03f, 1.443725824e-02f, -6.265666801e-03f, -1.668456569e-02f, 5.057762843e-03f, 1.853533648e-02f, -8.004721254e-03f, 3.493700549e-02f, 1.867662556e-02f, 2.416153066e-02f, 1.456950512e-02f, -1.069636550e-02f, 2.703766525e-02f, 1.596076041e-02f, 3.296069428e-02f, -1.643721759e-02f, -2.972409711e-04f, 8.398883045e-03f, -4.070651252e-03f, -9.485347255e-05f, 1.065322757e-02f, -2.509205043e-02f, -1.127011795e-02f, 2.047098614e-02f, -9.968835366e-05f, 7.271519280e-04f, -1.569066779e-03f, -1.353991101e-03f, -1.862140925e-04f, 7.638246752e-03f, 2.353952732e-03f, 1.900390908e-02f, 9.830297902e-03f, -5.101229064e-03f, 3.754235432e-02f, 3.030933812e-02f, 2.177477069e-02f, -4.442348611e-03f, 4.802416544e-03f, -1.413099933e-02f, -2.258508466e-02f, -1.074006222e-02f, -2.041433007e-02f, -9.710518643e-03f, -3.199960664e-02f, 1.848591678e-02f, 6.154294591e-03f, 1.742810709e-03f, 1.536470372e-02f, -3.193203732e-02f, -1.340412349e-02f, -2.054975741e-02f, 9.879900143e-03f, 4.522417486e-02f, 1.883820863e-03f, 1.471249945e-02f, 2.136012912e-02f, 1.833882555e-02f, -2.567921765e-02f, 1.115642302e-02f, -3.005970269e-03f, -3.838932840e-03f, 9.387746453e-03f, -7.052818779e-03f, 9.013433941e-03f, -4.356012121e-02f, 3.730947524e-02f, -1.462031528e-02f, -1.294015534e-02f, 7.956794463e-03f, -2.809470147e-02f, -2.015867457e-02f, 1.630640007e-03f, -1.050533261e-02f, 2.195157809e-03f, -2.705842443e-02f, -1.611647941e-02f, 3.333706409e-02f, 8.098595776e-03f, -1.647788659e-02f, -1.568777487e-02f, 2.961082943e-02f, -1.207919698e-02f, 1.947804354e-03f, 2.364316210e-02f, 1.147536468e-02f, -5.855364725e-03f, 1.529931836e-02f, -1.005900442e-03f, 3.721508197e-03f, 1.313128788e-02f, -2.177569643e-02f, 2.864690311e-02f, 1.540241181e-03f, 1.651135273e-02f, 4.231807962e-02f, -9.926766157e-03f, 2.100592479e-02f, -1.495623682e-02f, -1.906692167e-03f, 1.340115909e-02f, 1.345485449e-02f, 6.359918974e-03f, -4.777307622e-03f, 1.144602895e-02f, -5.436881445e-03f, 7.398243528e-03f, -1.244977210e-02f, 2.443533577e-02f, -1.513725519e-02f, 1.145344973e-02f, -4.987726733e-02f, -7.212732919e-03f, -3.680083156e-02f, -5.721357185e-03f, -1.994071528e-02f, 3.290184075e-03f, -1.385604497e-02f, -3.754863888e-02f, 6.618821528e-03f, -4.323789384e-03f, -1.373511273e-02f, -1.088042092e-02f, -1.369424630e-02f, 2.297065221e-02f, 4.628917668e-03f, 1.452514809e-02f, 1.748118922e-02f, -2.087797783e-02f, -1.092516910e-02f, -3.968762606e-02f, 2.216104604e-02f, 4.119081423e-02f, -2.664759569e-02f, 1.414803509e-02f, 3.255958669e-03f, -6.682153791e-03f, -1.012247056e-02f, 4.727917165e-02f, -2.775066160e-02f, -3.180336952e-02f, 6.982206367e-03f, 1.141241007e-02f, 2.729730308e-02f, -2.226498164e-02f, -1.735022850e-02f, 1.845190488e-02f, 9.749423480e-04f, -1.414452121e-02f, 1.584873721e-02f, -1.966990903e-02f, 1.416624431e-02f, -3.331275191e-03f, -1.159722637e-02f, -1.225452591e-02f, -2.880620956e-02f, -1.706738397e-02f, 1.065112837e-02f, -4.508931655e-03f, -1.866729558e-02f, -6.402731873e-03f, -6.452929694e-03f, 2.395041473e-02f, -7.579108700e-03f, -4.053785466e-03f, -3.352681920e-02f, -3.821171355e-03f, -2.690620720e-03f, -1.086928023e-04f, -1.171048265e-02f, 2.787854057e-03f, 6.848916411e-03f, 5.303596612e-03f, -4.394375160e-02f, -6.344147958e-03f, -4.015837982e-02f, 8.300493471e-03f, 9.706404991e-03f, 1.734574698e-02f, -4.031050950e-02f, -2.090256661e-02f, 1.021227706e-02f, -1.381095871e-02f, 1.683912589e-03f, 2.726111189e-02f, 1.454698201e-02f, 4.759604856e-02f, -5.944835022e-03f, 1.578587480e-02f, -9.901468642e-03f, 3.020467609e-02f, 1.015078649e-02f, -2.900593728e-02f, 2.288459800e-02f, 2.523532137e-02f, 2.715129964e-02f, 1.431439444e-02f, -2.909346949e-03f, 1.120345946e-02f, -9.183880873e-03f, -1.864051446e-02f, -2.335412195e-03f, 3.313536290e-03f, 4.555702582e-02f, -2.523927391e-02f, -2.384213358e-02f, 4.694547970e-03f, -4.569113627e-02f, 2.067814581e-03f, 2.075244300e-02f, 5.069001392e-02f, 2.036937512e-03f, 1.550687384e-02f, -1.402973663e-02f, -1.878792048e-02f, -2.390499972e-02f, -1.496551372e-02f, -2.307781577e-02f, -1.658858309e-06f, 1.443653833e-03f, -2.346555330e-02f, -1.042651758e-02f, 8.506104350e-03f, 3.189428709e-03f, -8.961865678e-03f, -1.850111783e-02f, -1.802761108e-02f, -1.150155999e-02f, -4.337778315e-02f, 1.526875142e-02f, 3.878039122e-02f, -1.940858737e-02f, 4.430558905e-02f, 1.895986870e-02f, -3.432386369e-02f, 1.433883235e-02f, 2.214893140e-02f, 3.131480515e-02f, 1.098928694e-02f, 2.970483154e-02f, -8.331811987e-03f, 1.186437905e-02f, -6.507203449e-03f, -1.886408776e-02f, 2.263058349e-02f, -1.571077295e-02f, -4.870701581e-02f, 4.084842280e-03f, 2.152614295e-02f, -7.557745557e-03f, -2.297796495e-02f, 1.649519242e-02f, -3.613913432e-02f, 1.138543896e-02f, -1.706118137e-02f, -2.720054938e-03f, 2.640578605e-04f, 1.128103212e-02f, 2.042884752e-02f, 3.142651170e-02f, -5.556788296e-03f, -2.846971527e-02f, -2.730370499e-03f, 1.595566422e-02f, 3.360685427e-03f, 1.417836268e-02f, 7.200262509e-03f, 4.634878132e-03f, -7.721931674e-03f, 1.314288384e-04f, -2.493853390e-04f, -1.424284186e-02f, 7.719600108e-03f, -6.463213358e-04f, 1.123533491e-02f, 1.165808085e-02f, -1.614611037e-02f, 4.371806979e-03f, -7.548650261e-03f, -7.902278565e-03f, 5.362816527e-02f, 1.827402972e-02f, 6.122885644e-02f, -4.065126181e-02f, -2.001032606e-02f, -1.758385450e-02f, 6.914392579e-04f, -3.717159107e-02f, 2.436070703e-03f, -3.527951613e-02f, 7.554838900e-03f, -7.641063072e-03f, -7.128669415e-03f, -2.631722949e-03f, 3.386354446e-02f, 9.164657444e-03f, -5.486977170e-04f, -2.152232081e-02f, -3.017161740e-03f, 2.640024200e-02f, 2.676513791e-02f, -1.777106710e-02f, -8.012662642e-03f, -1.791583560e-02f, 5.749972479e-05f, 1.779645681e-02f, 4.195075110e-02f, 2.103953622e-02f, -5.911572836e-03f, 1.580361859e-03f, -2.845111489e-02f, 1.742115617e-02f, 1.471634023e-02f, 1.289144345e-02f, -1.860271767e-02f, -2.688269131e-02f, -3.106784448e-02f, -3.448501602e-02f, 2.043425664e-02f, 2.071731910e-02f, 3.631271422e-03f, -2.091783332e-03f, -3.342368291e-04f, -9.089980274e-03f, 2.556024992e-04f, -2.611854300e-02f, 3.256739676e-02f, -2.038610354e-02f, 3.144309297e-02f, 1.641817577e-02f, 3.609534353e-02f, 5.202384666e-03f, -1.191778760e-02f, -1.613045484e-02f, -6.366543239e-04f, 5.099995062e-02f, 1.251058071e-03f, -1.391191594e-02f, 1.787954941e-02f, 2.555127814e-02f, -2.948320098e-02f, 3.055580333e-02f, -7.955129258e-03f, 1.071618986e-03f, -5.852277204e-02f, 4.961463623e-03f, 9.890561923e-03f, 6.846537348e-03f, -3.314944729e-02f, -2.290503867e-02f, 1.218637172e-02f, -3.905716352e-03f, -2.874531224e-02f, 9.064747952e-03f, -4.480978940e-03f, 3.063150914e-03f, -1.531966613e-03f, 2.070570178e-02f, -2.207481116e-02f, -3.577004746e-02f, -2.152885310e-02f, 3.497988731e-02f, 5.688650068e-03f, -4.387992248e-02f, 3.782284260e-02f, -5.181168206e-03f, -9.452957311e-04f, -6.303823553e-03f, 1.783928648e-02f, -1.125106309e-02f, 1.264325250e-02f, 3.278427199e-02f, 2.029060572e-02f, -1.417199895e-02f, 2.600899898e-02f, -8.060780354e-03f, -3.135173768e-02f, 9.976931848e-03f, 1.100946311e-02f, -3.573959693e-02f, -1.162811834e-02f, -4.187723622e-03f, -1.496370323e-02f, -2.103430964e-02f, -3.130845958e-03f, -7.167024072e-03f, -3.542439779e-03f, -2.450002916e-02f, -3.719094675e-03f, 1.622705348e-02f, 1.299151406e-02f, 8.842729032e-03f, -3.137395158e-02f, -1.572407596e-02f, 4.105142877e-02f, 9.330619127e-03f, 1.419498213e-02f, -1.952536963e-02f, 1.250132639e-02f, 1.546337362e-02f, -6.886991207e-03f, -1.130203716e-02f, -2.391347103e-02f, 1.767663099e-02f, 1.007579546e-02f, 1.174623705e-02f, -9.652289562e-03f, 1.815926284e-02f, 7.014965173e-03f, 5.004776758e-04f, -7.867882960e-03f, 2.944545448e-02f, 1.100618020e-02f, -2.990625100e-03f, -1.546757296e-02f, 2.089909837e-02f, -1.871644519e-02f, -2.224469092e-03f, -9.270762675e-04f, 1.551758498e-02f, -1.241770200e-02f, -2.691476233e-02f, -4.618451640e-04f, 6.200121716e-04f, -7.559576072e-03f, -1.036910992e-02f, -2.036000229e-02f, -1.005400717e-02f, -2.214776911e-02f, 1.645177044e-02f, -2.316212840e-02f, 2.550606988e-02f, 1.559012849e-02f, 4.537943751e-02f, 1.417261316e-03f, 1.585644297e-02f, -2.306561172e-02f, 1.164930873e-02f, -3.751950711e-02f, 3.424490243e-02f, -1.300247014e-02f, -2.820953727e-02f, -2.287369408e-02f, -2.065678313e-02f, 4.528110439e-04f, -1.236171741e-02f, 1.147436257e-02f, -3.263918310e-02f, -9.888609638e-04f, -5.729030073e-02f, -6.352569908e-03f, -1.526785363e-02f, 1.126333326e-02f, -7.808050141e-04f, 9.010389331e-04f, 2.979949117e-03f, 1.156317163e-02f, 7.517231628e-03f, -1.546633313e-03f, -1.462766994e-02f, 3.278020024e-02f, 3.151451005e-03f, -3.087054705e-03f, 1.656308956e-02f, -2.379265241e-02f, 1.112464722e-02f, -2.688290365e-02f, -6.551879458e-03f, 5.184090231e-03f, 2.116215619e-04f, -1.697964780e-02f, 4.094421864e-03f, 2.378039062e-02f, 3.643229604e-02f, -1.040342916e-02f, 9.213563986e-03f, -1.344653778e-02f, 3.059799550e-03f, -1.825134619e-03f, -1.325756870e-02f, -3.121243604e-02f, 2.013735659e-02f, 3.234034637e-03f, -1.639759517e-03f, -1.262355014e-03f, 2.855932713e-02f, 2.398630045e-02f, -1.492952649e-02f, -2.599659935e-02f, 3.922897857e-03f, 1.420865953e-02f, 1.921816356e-02f, -2.215670981e-02f, -4.637646675e-02f, -7.208863273e-03f, -1.391227916e-02f, 2.847316442e-03f, 7.767135277e-03f, 1.361169107e-02f, -1.336323470e-02f, 1.036112756e-02f, 3.049537539e-03f, 1.718534902e-02f, 2.527735569e-02f, -1.991267875e-02f, -9.422523901e-03f, -1.771339681e-03f, 1.361465082e-02f, -1.084136497e-02f, -1.464083139e-02f, 5.382856820e-03f, -1.456917264e-02f, -8.486668579e-03f, 2.850585617e-03f, -1.822391897e-02f, -2.312114276e-02f, 1.172229461e-02f, -1.267777663e-02f, -1.715618186e-02f, -1.040934306e-02f, 6.072144490e-03f, 6.745011080e-03f, -1.336426381e-02f, -6.426245091e-04f, -3.650483117e-02f, -3.128371015e-02f, -5.276814569e-03f, 9.847082198e-03f, 9.637589566e-03f, 6.658879574e-03f, -2.436769940e-02f, -3.203378618e-02f, -4.031590745e-02f, 6.746742409e-03f, 2.785149962e-02f, 2.319592610e-02f, -4.311165586e-02f, 3.206480760e-03f, -1.971279643e-02f, 1.944410242e-02f, 3.465109318e-02f, -1.961756265e-03f, 3.779996932e-02f, 8.131288923e-03f, 1.017527562e-02f, 3.132560477e-02f, -8.850705810e-03f, 1.204077271e-03f, 1.045850478e-02f, 1.212619431e-02f, 6.174701080e-02f, -1.876395196e-02f, 1.393580902e-02f, -4.922721069e-03f, 1.356489956e-02f, -1.010846626e-02f, -8.567567915e-03f, 3.267251700e-02f, -6.300200243e-03f, -1.835947298e-02f, 3.528464213e-02f, -8.959836327e-03f, 4.243464023e-02f, 3.619631752e-02f, 9.760291316e-03f, -4.122688901e-03f, -1.961627975e-02f, 7.396033965e-03f, -1.714117080e-02f, 1.750316657e-02f, -1.067173295e-02f, -1.995975338e-02f, 2.569949068e-02f, -7.892207243e-03f, -7.439196110e-03f, -7.418754976e-03f, -1.335749589e-02f, -2.970591187e-03f, 1.361141913e-02f, -4.818681162e-03f, 1.200255565e-02f, -9.426030330e-03f, -1.532129478e-03f, 4.655764438e-03f, 1.747843623e-02f, 1.364361029e-02f, 3.562935162e-03f, 1.862425916e-02f, -8.096222766e-03f, -3.018386196e-03f, 1.772061689e-03f, 1.427114662e-02f, -9.688240825e-04f, 5.039823055e-02f, 1.765843295e-02f, 2.674759738e-02f, 1.016928931e-03f, 2.527999878e-02f, -5.019423738e-02f, -2.383900108e-03f, -2.045572735e-02f, -2.817815915e-02f, -2.321245708e-02f, 2.168675326e-02f, 3.490708023e-02f, 1.700958423e-02f, -1.683069021e-02f, 2.321944339e-03f, -3.657448664e-02f, -2.783758193e-02f, -2.369808406e-02f, -1.775432006e-02f, -2.376857027e-02f, -1.422384195e-02f, 2.605878282e-03f, -1.681118971e-03f, 1.190158073e-02f, 5.180287408e-04f, 5.824367050e-03f, 1.124964654e-02f, -6.574919447e-03f, -6.353830919e-03f, -3.863887116e-02f, 2.316519991e-02f, -1.329761581e-03f, 1.029440481e-02f, 3.544490552e-03f, 1.401388901e-03f, 2.253577858e-02f, 6.340044551e-03f, 2.611977048e-02f, 1.842468395e-03f, -4.347675480e-03f, 5.718520656e-02f, -6.814016495e-03f, -1.043755841e-02f, 4.786065780e-03f, 1.479488704e-02f, -1.339119626e-03f, -2.180432901e-03f, -5.403557327e-03f, -1.084651449e-03f, -3.355168924e-02f, -3.792079166e-02f, 7.534740493e-03f, -1.644777507e-02f, -3.490289673e-02f, 7.133467589e-03f, -3.899397096e-03f, 1.974540390e-02f, -8.943915367e-03f, -6.322477944e-03f, 9.072050452e-03f, 4.804629087e-02f, -1.524795126e-02f, 3.755525919e-03f, 1.886055921e-03f, -1.515542809e-02f, -1.638611546e-03f, -8.449424990e-03f, -4.065416288e-03f, 2.936768532e-02f, -4.750339780e-03f, 5.257175071e-04f, 1.061462145e-02f, -3.667752445e-02f, 8.254522458e-03f, 1.076677162e-02f, -8.932862431e-03f, -2.316122502e-02f, -1.545044035e-02f, 1.172938291e-02f, -1.614246145e-02f, 3.383459151e-02f, 2.216149308e-02f, 2.991914190e-02f, 8.918188978e-04f, -1.897355425e-03f, 1.047605276e-02f, -8.256343426e-04f, -1.064919270e-04f, -7.985237055e-03f, -5.586855859e-02f, -2.733669011e-03f, -4.240554292e-03f, -2.339673229e-02f, -8.662869222e-03f, -1.726002619e-02f, 2.354828827e-02f, -5.406891461e-03f, -1.932878979e-02f, -1.557274628e-02f, -2.506167442e-02f, -9.234393947e-03f, 2.921734564e-02f, 9.040853009e-03f, -3.946454823e-02f, 2.788432688e-02f, 2.082294598e-02f, -1.034170948e-02f, -1.776768453e-02f, -1.349025685e-02f, -1.505111996e-02f, -3.359293938e-02f, -1.946682110e-02f, 1.943269931e-02f, -1.814859919e-02f, 2.000710228e-03f, 1.437851600e-02f, -4.983525258e-03f, -5.612972658e-03f, 4.112867638e-02f, -1.441612840e-02f, 8.757466450e-03f, 5.681346636e-03f, 2.153318375e-02f, -1.458106097e-02f, 1.514645386e-02f, -1.607602835e-02f, 3.391102189e-03f, -2.719234489e-02f, -1.716659754e-03f, 8.607744239e-03f, -2.218727488e-03f, 2.372681722e-02f, -1.072898135e-02f, 1.744781062e-02f, 1.362209767e-02f, -1.862733625e-02f, -3.918952495e-02f, -7.247810252e-03f, -3.658138681e-03f, 3.094758466e-02f, 4.594096914e-02f, 1.328921318e-02f, -1.455354039e-02f, -2.677223645e-03f, 1.121657714e-02f, -2.153480239e-02f, -2.549358178e-03f, 4.891416989e-03f, 1.609448716e-02f, -1.992782578e-02f, 1.319084782e-03f, 8.811620064e-03f, 2.877884172e-02f, 4.460680299e-03f, -2.447419427e-02f, -1.405530889e-02f, 3.608688712e-02f, 3.121039597e-03f, -4.122075438e-02f, -1.788216829e-02f, -3.526757658e-02f, -9.504668415e-03f, 5.603979807e-03f, 5.729028024e-03f, 4.901938606e-03f, 6.897220388e-03f, 1.117792819e-02f, 8.482947014e-03f, 1.049764734e-02f, 5.401071161e-03f, -9.886902757e-03f, -8.337312378e-03f, -2.357080579e-02f, 3.151915269e-03f, -2.079784125e-02f, 1.425518561e-02f, -5.474565842e-05f, -1.624883153e-02f, -2.941416344e-03f, -1.903414959e-03f, 1.046270225e-02f, 2.074953169e-03f, 6.427314598e-03f, -3.209931543e-03f, 1.098743640e-02f, 2.060747473e-03f, -6.045390386e-03f, 7.057015784e-03f, -5.070606247e-03f, -2.762126550e-02f, -9.078604169e-03f, -1.566918567e-02f, -1.692084409e-02f, 3.946541622e-02f, 2.537736855e-02f, -1.110431366e-02f, -2.451011352e-02f, 2.596849576e-02f, 7.045197301e-03f, 1.190416049e-02f, -5.558018573e-03f, 1.922637969e-02f, 2.676562965e-02f, -1.076982636e-02f, 7.412210573e-03f, -5.066353362e-03f, -8.953176439e-03f, -4.724080674e-03f, 5.829158705e-03f, -4.137163609e-02f, -2.440606803e-02f, -4.555135965e-03f, 1.074571628e-02f, 5.459833425e-03f, 1.592518203e-02f, -1.432935521e-02f, -2.362221479e-02f, -2.574883960e-02f, -8.205415797e-04f, -1.479803212e-02f, -1.558381133e-03f, 2.112234384e-02f, -6.741016172e-03f, 3.146443889e-02f, -1.256641746e-02f, -1.242212392e-02f, 2.281893417e-02f, 1.340096164e-02f, 1.997308433e-02f, -1.665828936e-02f, 1.159006450e-02f, 1.924016699e-02f, 8.701292099e-04f, 1.067175996e-02f, -7.126978599e-03f, -1.956482604e-02f, -3.071556054e-02f, -9.267903864e-03f, -8.451391943e-03f, -3.672644123e-02f, 2.024458535e-02f, -1.841378282e-03f, 4.940611124e-02f, -3.147608787e-02f, 1.954048872e-02f, 1.803739183e-02f, 2.385323867e-02f, -5.451472942e-03f, -2.475634776e-02f, -8.921625093e-03f, -8.704581298e-03f, -2.456952352e-03f, -6.864632014e-03f, 1.210819092e-02f, 5.907403771e-03f, -1.554627530e-02f, -1.148437243e-02f, -1.397152618e-02f, 4.046774004e-03f, -1.056602411e-02f, -1.828656677e-04f, -3.670839965e-02f, -8.801301941e-03f, 2.407359704e-02f, -1.975329407e-02f, -2.567818761e-02f, 1.205731463e-02f, 3.556158766e-02f, -2.758341283e-02f, 1.830392168e-03f, -8.432132192e-03f, -5.170309450e-03f, -8.001127280e-03f, 8.989723399e-03f, 1.578310505e-02f, -1.323333103e-02f, 5.422315560e-03f, 1.079358906e-02f, 2.448138036e-02f, 4.944274202e-02f, -1.971420646e-02f, -1.910684258e-02f, -1.099711284e-02f, 5.150195584e-02f, -1.521913894e-02f, 2.525090612e-02f, 6.161778234e-03f, -6.501826458e-03f, -1.528059691e-02f, -2.669906616e-02f, 6.675750948e-03f, -3.521434497e-03f, 9.493180551e-03f, -4.116639320e-04f, 2.581188083e-02f, 2.624280937e-02f, -2.133331262e-02f, 1.621648110e-02f, 5.781022832e-03f, -3.509533592e-03f, -1.256146841e-02f, -7.927679457e-03f, 1.438909955e-02f, -4.197622649e-03f, -3.078116104e-02f, 3.147257864e-02f, 9.348242544e-03f, 1.848025131e-03f, -2.025659569e-02f, -4.096083343e-03f, -2.360213734e-02f, -1.861529797e-02f, -1.088943426e-02f, -1.563001052e-02f, 3.599768877e-02f, -2.621418610e-02f, 1.054394175e-03f, -1.200563554e-02f, -1.213259157e-02f, 6.177348550e-03f, 4.802983999e-02f, -1.359511982e-03f, -2.440453973e-03f, -2.417912893e-02f, -1.897331886e-02f, -1.523291413e-02f, -1.785742678e-02f, 2.925008908e-02f, -1.590447873e-02f, 1.526336651e-02f, -1.277672127e-03f, -5.933300033e-02f, -2.542483853e-03f, 5.081427749e-03f, 7.478096522e-03f, -4.803201929e-02f, 3.036018461e-02f, 1.143501699e-02f, -7.407708094e-03f, 2.690876601e-03f, 1.265950780e-02f, 1.620797906e-03f, -1.602476463e-02f, -6.828276068e-02f, -2.997137234e-02f, -1.521632914e-02f, 6.474533584e-03f, 9.323776700e-03f, -1.958484761e-02f, -2.149607427e-02f, -1.569050550e-02f, 4.136328027e-02f, -2.235811017e-02f, -5.062895361e-03f, -1.470151357e-02f, 2.833081596e-02f, 1.913619693e-03f, 9.540826082e-03f, -4.644154105e-03f, -1.069704257e-02f, 8.221558295e-03f, -1.481179707e-02f, 4.065255448e-02f, 1.957085170e-02f, -1.152712945e-02f, -5.675497465e-03f, -2.488172054e-02f, 1.052680612e-02f, 2.027822472e-02f, 1.256277319e-02f, -2.941516461e-03f, -1.973508392e-03f, 2.136512473e-02f, 1.042273710e-03f, 5.263156490e-04f, 1.278765313e-02f, -4.399758298e-03f, 7.995605469e-03f, 1.761491224e-02f, 3.094618296e-05f, 5.690333783e-04f, 1.354203653e-02f, 1.500595734e-02f, 1.092376933e-02f, -2.186455205e-02f, 1.056869142e-02f, 3.178311512e-02f, 6.237400696e-03f, 4.231048375e-02f, -1.567312889e-02f, 1.806255989e-02f, 1.393225044e-02f, 2.672883868e-02f, -4.377648234e-03f, -2.666358487e-04f, -3.709045798e-02f, 1.519803330e-02f, -1.070597582e-02f, 1.311673224e-02f, -1.655833330e-03f, -4.292450845e-03f, -1.366987824e-03f, -3.732759133e-02f, 1.047793031e-02f, 3.109115735e-02f, 1.725093648e-02f, 3.268488217e-03f, -1.325032674e-02f, 4.120096937e-02f, 5.145965517e-02f, 1.379419025e-02f, 1.065262686e-02f, -2.156009339e-02f, 2.043574490e-02f, 4.679002613e-02f, 3.536893055e-02f, 1.430668961e-02f, 4.834577907e-03f, 7.654769812e-03f, 1.943906210e-02f, -4.098107293e-02f, 1.925298013e-02f, -4.351388663e-03f, -6.078238133e-03f, -1.727602258e-02f, -4.059035331e-03f, 1.688611135e-02f, -8.272699080e-03f, 1.332760416e-02f, 2.126252837e-02f, 1.091762073e-02f, 3.064588644e-03f, -1.052342588e-03f, 1.332910825e-02f, -7.069768384e-03f, 1.226644404e-02f, 1.940267533e-02f, 7.801952306e-04f, 4.424626939e-03f, -1.362159965e-03f, -1.566963620e-04f, -1.705263741e-02f, -2.749655687e-04f, -3.414038941e-02f, 1.204390172e-02f, 2.204499952e-02f, -2.805658430e-02f, 1.307715755e-02f, 1.935573481e-02f, 4.409355577e-03f, -4.358082544e-03f, -3.796374798e-02f, -2.102858573e-02f, -1.025033416e-04f, -2.259101532e-02f, 5.059298128e-03f, 1.328411017e-04f, -2.648302168e-02f, -3.651197185e-04f, -1.685580984e-02f, -4.766343907e-02f, -2.700222656e-02f, 1.345904917e-02f, 6.168423221e-03f, -2.139496803e-02f, 6.662114058e-03f, 9.111243300e-03f, -3.215552121e-02f, 2.099158242e-02f, 8.456368931e-03f, -2.325502411e-02f, 2.972217277e-02f, -2.251672745e-02f, -1.164409891e-02f, -2.038691938e-02f, 1.941573620e-02f, 3.696690779e-03f, -2.523709647e-02f, 4.206287116e-02f, 2.178614028e-02f, 1.612208597e-02f, -2.245846018e-02f, -4.995880648e-02f, -1.820216328e-02f, -2.674229071e-02f, 7.279494312e-03f, -2.283273824e-02f, 1.024344820e-03f, -1.304523088e-02f, 5.210885312e-03f, -2.728455001e-03f, -2.013425715e-02f, -4.145472124e-02f, 6.783534773e-03f, 7.407302503e-03f, 1.023891941e-02f, -2.070251154e-03f, 1.021642983e-02f, -1.189688407e-02f, 8.481482975e-03f, -1.501798746e-03f, -2.778873779e-02f, 4.289615154e-02f, 5.983424839e-03f, 5.270387512e-03f, -8.709768765e-03f, -2.314109728e-02f, 2.030294575e-02f, -7.809882518e-03f, 4.238410853e-03f, 3.011695482e-02f, 1.144304592e-02f, 1.117496565e-02f, 1.028745528e-02f, -9.022892453e-03f, 1.096004061e-02f, -1.031441800e-02f, -6.245140918e-03f, 2.849306678e-03f, 2.857408859e-02f, 1.425359864e-03f, 2.290558256e-02f, -5.264643580e-02f, -1.197708957e-02f, 1.283278037e-02f, 1.005099970e-03f, 3.236054908e-03f, 1.222307142e-02f, -5.193981808e-03f, 1.105298474e-02f, 2.202331088e-02f, 8.544920012e-03f, 4.560880363e-03f, 2.557179704e-02f, 3.798984224e-03f, -6.894850638e-03f, 1.121943351e-02f, -5.785276182e-03f, -2.242072485e-02f, 2.772273682e-02f, 2.533673681e-02f, -2.927573584e-02f, 1.691613719e-02f, 1.104392298e-02f, -3.085155413e-02f, 1.618102565e-02f, 1.848441362e-02f, 4.199293908e-03f, 1.195027679e-02f, -3.369660303e-02f, -3.626142815e-02f, -2.471680054e-03f, -1.217569597e-02f, 2.036497230e-03f, 4.394388292e-03f, 7.974909618e-03f, 3.201074898e-02f, -2.915232908e-03f, -6.415766198e-03f, -9.828509763e-03f, 1.520058978e-02f, -2.680679411e-02f, -1.904788986e-02f, 7.081138901e-03f, -7.337770425e-03f, -3.270860016e-02f, -1.231440157e-02f, -2.221686952e-02f, -2.778954245e-02f, -2.002841234e-02f, 3.934296314e-03f, 2.070681192e-03f, 3.301317990e-02f, -2.319800435e-03f, 1.964423433e-02f, 2.961085876e-03f, 1.259675715e-02f, -1.076924056e-02f, 2.959575271e-03f, 3.257516026e-02f, 1.117532328e-02f, 1.673737541e-02f, -1.748337783e-02f, -3.095933050e-02f, 1.270449022e-03f, 1.127542090e-02f, -1.522750687e-02f, 1.250237692e-02f, 3.032442927e-02f, -1.829308108e-03f, -2.803851618e-03f, -5.050879437e-03f, -4.271845892e-02f, -6.777812727e-03f, -2.917678282e-02f, -4.447929189e-02f, 6.460839417e-03f, 2.972824313e-02f, -3.073919192e-02f, 4.722236097e-02f, -1.362401433e-02f, -3.750487417e-02f, -1.223474741e-02f, 6.265371107e-03f, -1.395875937e-03f, -4.063914344e-02f, 3.727315739e-02f, -9.981662035e-03f, 1.200230885e-02f, 2.003989369e-02f, 4.825909564e-04f, -4.284832999e-02f, -1.617001556e-02f, 1.112790219e-02f, 1.469995361e-02f, 1.517582033e-02f, 1.941041648e-02f, -5.433878303e-02f, 2.158113942e-02f, 1.754648797e-02f, -2.535787178e-03f, -2.405851148e-02f, -1.735510118e-02f, 3.351212665e-02f, 8.744884282e-03f, 1.834274642e-02f, 3.018497489e-02f, 3.649604321e-02f, 1.376134926e-03f, 6.899261847e-03f, -3.348099813e-02f, 4.598000553e-03f, 2.052256372e-03f, -2.352470905e-02f, 8.880567737e-03f, 6.230114959e-03f, -2.574348822e-02f, -1.487438567e-02f, 9.374009445e-03f, -5.371026695e-03f, -1.983745256e-03f, -4.601254594e-03f, 6.366250571e-03f, 6.708587054e-03f, 1.247572247e-02f, -2.039411664e-02f, 1.449938584e-02f, 2.353567258e-02f, 1.804722473e-02f, 3.274497762e-02f, 1.600884087e-02f, 6.926352624e-03f, -7.311921101e-03f, -1.382392179e-02f, -2.391926385e-02f, -9.204947390e-03f, -5.254196934e-03f, -1.230812073e-02f, 1.119865663e-02f, -2.723390702e-03f, 1.516780909e-02f, 2.032664791e-02f, 1.178766694e-02f, -1.482381206e-02f, 3.773521259e-02f, -2.680473030e-02f, 8.348374395e-04f, 2.522272989e-02f, 3.959857672e-02f, -1.337831025e-03f, -1.300297864e-02f, -3.818274243e-03f, -5.298007280e-02f, 1.445617992e-02f, 1.584373973e-02f, 1.480269432e-02f, 2.271030284e-02f, 1.528376155e-02f, -4.224799201e-02f, 5.280430429e-03f, 4.172778223e-03f, -1.799164340e-02f, 8.477300406e-03f, 1.170488819e-02f, 6.323664449e-03f, -7.139177178e-04f, -1.644585468e-02f, -7.535447367e-03f, -1.758609340e-02f, -1.188728772e-02f, 1.559327357e-02f, 9.524612688e-03f, 4.578928929e-03f, 3.121827729e-02f, 5.297362222e-04f, 3.518339014e-03f, -3.051321721e-03f, 4.707741391e-05f, -1.294095721e-02f, 3.916344140e-03f, 2.887944318e-02f, 1.026588306e-02f, 1.252112631e-02f, -1.308456622e-02f, -1.619355194e-02f, 2.648181096e-02f, 8.341366425e-03f, 1.109606028e-02f, -2.353894338e-02f, 1.976639591e-02f, -3.860331606e-03f, 4.357426614e-02f, -6.991083501e-04f, -1.262885984e-02f, -4.877555370e-02f, -1.897761971e-02f, -7.131739520e-03f, 5.688413046e-03f, 3.134807805e-03f, 2.443660423e-02f, -2.086663246e-02f, 2.063944377e-02f, 7.244338281e-03f, -2.477390692e-02f, -3.118770383e-02f, -1.844562218e-02f, -8.417150006e-03f, -1.366917510e-03f, 1.630103588e-02f, -3.787438385e-03f, -6.479113363e-03f, -2.350464463e-02f, 7.799372077e-03f, 9.824341163e-03f, -8.018593304e-03f, -3.220380098e-02f, 1.843016036e-02f, -7.021466270e-03f, -4.988027271e-03f, -1.401701942e-02f, 1.029804349e-02f, 1.827508025e-02f, 2.515858272e-03f, -4.805776756e-03f, 2.914235368e-02f, -1.713212021e-02f, -3.034332395e-02f, -1.535273436e-02f, -1.003830414e-02f, 1.291009132e-02f, -1.209730376e-02f, -1.042659278e-03f, 2.790882438e-02f, 1.058845129e-02f, -1.117209066e-02f, 3.063632920e-02f, -2.299237996e-03f, 2.180606592e-03f, 1.340191718e-02f, -1.317587867e-02f, 1.678343304e-02f, -1.434550621e-02f, -1.760332100e-02f, -1.310848817e-02f, -5.567138433e-04f, 1.198070869e-02f, 1.067276206e-02f, 1.179813128e-02f, 4.189552739e-02f, 1.031896938e-02f, 2.792387642e-02f, 1.804533787e-02f, -2.203954197e-02f, -1.024541073e-02f, 1.611763611e-02f, 5.053094123e-03f, 1.324464008e-02f, 1.521953195e-02f, 1.766208559e-02f, 3.361393698e-03f, -2.322300151e-02f, 4.190919455e-03f, 4.330008850e-02f, 7.025796454e-03f, -3.163809702e-02f, 1.011057198e-02f, -2.688391879e-02f, -3.319721203e-03f, -5.870020762e-02f, 8.631843230e-05f, -8.088843897e-03f, -1.819587126e-02f, 1.644892991e-02f, -7.592982729e-04f, -1.869249344e-02f, 1.017053705e-02f, 4.918693751e-02f, -4.733825475e-02f, 2.336392738e-02f, -1.731443219e-03f, 3.484364599e-02f, 6.416022661e-04f, 6.055091944e-05f, 1.574343257e-02f, 1.554748509e-02f, -1.028420683e-02f, 6.051741075e-03f, -1.638725027e-02f, 5.935765803e-03f, -1.128932927e-02f, 8.279900998e-03f, 2.677460201e-02f, 2.296910249e-02f, 2.235502750e-02f, 7.746247575e-04f, -7.822249085e-03f, -1.713619009e-02f, -7.991958410e-03f, -2.241313225e-03f, 2.458046935e-02f, -5.393379615e-05f, 8.105260320e-03f, 3.631125763e-02f, 2.363440953e-02f, -4.842485301e-03f, 1.772664720e-03f, -3.444779664e-03f, -1.965759508e-02f, 1.206330117e-02f, 1.297503337e-02f, 1.372168958e-02f, 1.941089891e-02f, -3.074071370e-02f, 9.237186983e-03f, 1.937308162e-02f, -2.333896980e-02f, 1.177365799e-02f, 2.605405822e-02f, -1.005744212e-03f, 8.571847138e-05f, 3.224630840e-03f, -1.458318438e-02f, 2.836332284e-02f, -7.982596755e-03f, -2.291174792e-02f, -4.042652622e-02f, 4.043740034e-02f, 5.095497891e-02f, -2.114014328e-02f, -2.847415768e-02f, -2.444540709e-02f, -1.917823218e-02f, 1.059618685e-02f, -2.518716082e-02f, -2.896758541e-02f, -1.620839350e-02f, -9.766983800e-03f, 3.460814804e-02f, -1.192557067e-02f, -5.354645546e-04f, 7.146009593e-04f, 1.426243316e-02f, -2.135575935e-02f, -1.077441312e-02f, 1.209147926e-02f, 8.056679741e-03f, -1.132199820e-02f, -3.248425899e-03f, -1.552468725e-02f, 3.311919793e-02f, 7.020040415e-03f, 2.212486602e-02f, -1.949390024e-02f, -1.816657931e-02f, 5.582804326e-03f, -8.351437747e-03f, 4.766166210e-03f, -1.203470584e-02f, 4.154909402e-04f, -3.443080187e-02f, 2.252836898e-02f, -3.980496898e-02f, 2.801893651e-02f, 6.509020925e-03f, 1.738460362e-02f, 5.668493453e-03f, -1.156971091e-03f, -3.878458170e-03f, 2.589897066e-02f, 3.923669923e-03f, 3.396224603e-02f, 4.219178483e-02f, 3.123755939e-02f, -2.959136479e-02f, -2.526806384e-05f, 5.797279999e-03f, -3.298325837e-02f, 2.463812754e-02f, 1.536773425e-02f, -8.581909351e-03f, -8.010171354e-03f, -1.371275354e-02f, 2.154308558e-02f, -1.942565106e-02f, -4.069080576e-02f, -2.810329944e-02f, 1.857594773e-02f, 6.593801081e-02f, 3.199536726e-02f, -2.221548930e-02f, 1.305365749e-02f, 1.994481683e-02f, -7.628409192e-03f, -1.529526524e-02f, 3.590798378e-02f, 3.561517596e-02f, 2.027952432e-04f, 7.437238470e-03f, 4.052304663e-03f, -1.802145876e-02f, -1.370113250e-02f, -1.657323912e-02f, -9.703384712e-03f, -1.675603725e-02f, 3.756994382e-02f, 4.965404421e-02f, 8.947333554e-04f, 1.383391023e-02f, -1.300138701e-02f, 6.303523201e-03f, -5.347160622e-04f, -2.397483774e-02f, 6.310415920e-03f, 4.530231934e-03f, 1.994924434e-02f, 1.875828765e-02f, 3.330053762e-02f, 6.856011227e-03f, 1.416331064e-02f, -1.060402021e-03f, -1.649364643e-02f, 2.244947245e-03f, -2.276651748e-02f, -9.743083268e-03f, 2.477456257e-02f, -1.075603906e-02f, 2.375360113e-03f, 6.978120655e-02f, -1.669923402e-02f, 3.066250496e-02f, -1.646727696e-02f, -1.732449047e-02f, 1.337978640e-03f, 1.899875142e-02f, -2.076663449e-02f, -2.147980966e-02f, 3.244544566e-02f, 7.393722888e-03f, -9.991596453e-03f, 2.949921228e-02f, 2.317377832e-03f, -7.391836960e-03f, -3.965612501e-03f, 4.052046314e-02f, -2.553927340e-02f, -3.623992950e-02f, -9.655674919e-03f, -1.780712232e-02f, 1.167505048e-03f, -1.844684966e-02f, -2.346704714e-02f, -1.213395316e-02f, 6.976323668e-03f, 2.165127918e-02f, -7.816637866e-03f, -1.957768202e-02f, -4.636503756e-03f, 8.420482278e-03f, -2.775477991e-02f, 7.127920631e-03f, -4.256353900e-02f, 1.179851592e-02f, -1.822847314e-02f, -1.388673764e-02f, -5.414968822e-03f, 4.625357687e-03f, 1.884236000e-02f, -3.624115884e-02f, -1.078192238e-02f, -2.056235913e-03f, 1.626892248e-03f, 2.130104043e-02f, 1.232347544e-02f, 3.772234172e-02f, -6.667440757e-03f, -5.819587968e-03f, -1.858629100e-02f, 1.080065314e-02f, 2.365327254e-02f, 1.274533942e-02f, -1.552177034e-02f, 1.421820745e-02f, -3.055168875e-02f, 1.961204223e-03f, -2.168894745e-02f, -1.169343293e-02f, -1.354325470e-02f, 2.590605430e-02f, -1.776662283e-02f, 1.281146985e-02f, -3.037083149e-02f, -8.245209232e-03f, 8.869055659e-03f, -2.335276082e-02f, -1.283460204e-02f, 8.580863476e-03f, -3.471890697e-03f, -1.130372100e-02f, -2.152416110e-02f, -5.731253419e-03f, 1.517201774e-02f, 1.251672488e-02f, 2.011526376e-02f, 1.436084695e-02f, 3.431431251e-03f, -2.111911215e-02f, 9.535072371e-03f, 2.446515486e-02f, -1.818067208e-02f, 2.678485774e-02f, 2.722000144e-02f, 4.701980855e-03f, -9.507173672e-03f, 2.678570105e-03f, -3.185359016e-02f, -3.143906826e-03f, 1.665944606e-02f, 3.842098871e-03f, 3.698987514e-02f, 3.169598803e-02f, -1.537198760e-02f, 1.386729442e-02f, -4.942010157e-03f, 2.249124646e-02f, 1.651397534e-02f, -4.024195950e-03f, -1.583120599e-02f, -5.533009768e-02f, 1.426242664e-02f, -2.100397460e-02f, 2.011070959e-02f, 1.370834187e-02f, -1.362704858e-02f, -1.205765363e-02f, 1.533599477e-02f, -2.173893154e-02f, 1.750132814e-02f, 3.341886774e-02f, -2.809955738e-02f, -3.484067321e-02f, 2.493846603e-02f, -5.072664097e-02f, 2.200602926e-02f, -1.447276212e-02f, 3.446404263e-02f, -6.656079087e-03f, -3.706573322e-02f, 3.313705698e-02f, 9.274906479e-03f, -3.408711869e-03f, -5.738432053e-03f, 2.869643457e-02f, 1.142361760e-02f, 8.511701599e-03f, 9.732058272e-03f, -5.771398544e-03f, 1.962361299e-02f, 1.339536905e-02f, 4.765470512e-03f, -2.758947434e-03f, -2.540818648e-03f, 1.545052510e-02f, -9.488871437e-04f, -1.906787604e-02f, 5.565226078e-03f, 1.633779518e-02f, -2.440234087e-02f, -1.562628546e-03f, 2.650325187e-02f, -1.594714820e-02f, 1.119276229e-02f, 1.988301054e-02f, 1.336788666e-02f, -1.086135395e-02f, -2.087642439e-02f, 2.319834940e-02f, -3.793251701e-03f, 6.253628060e-03f, -9.777898900e-03f, -1.231015101e-02f, 2.311552875e-02f, 2.311313525e-02f, 1.808160171e-02f, 1.615405455e-02f, -1.591343805e-02f, -7.025930565e-03f, 3.369590640e-02f, -2.240736596e-02f, -1.118071843e-02f, 3.165150527e-03f, -4.922821745e-02f, 3.241865709e-02f, -2.917608619e-02f, 2.875236794e-03f, 1.745966449e-02f, 4.094335064e-02f, -1.265144069e-02f, -1.877272688e-02f, -1.747982763e-02f, 2.509461343e-02f, 2.481105551e-02f, 1.612932049e-02f, 1.580862515e-02f, 1.127957832e-02f, 3.146847943e-03f, -3.065950237e-03f, -1.844557934e-02f, -1.777492091e-02f, -1.164373476e-02f, 2.031239495e-02f, 2.902779356e-02f, 1.639659330e-02f, -1.553143375e-02f, -7.357914932e-03f, -3.643955290e-02f, 1.592185907e-02f, -1.042050496e-02f, -2.772739157e-02f, -8.351834491e-03f, -4.822857305e-02f, 2.141393721e-03f, 1.855688915e-02f, -1.973049250e-03f, 3.946154192e-02f, -7.719464600e-03f, -2.099592611e-02f, -3.293861868e-03f, -1.675749198e-02f, 2.676328085e-02f, 9.231783915e-04f, -3.446548805e-02f, -1.173447724e-02f, -2.010460384e-02f, -2.798880916e-03f, 1.698491164e-02f, 4.215057194e-02f, 4.702667706e-03f, -5.119138956e-02f, -3.443891183e-02f, 1.593405195e-02f, 2.079882286e-02f, -1.766808145e-02f, 2.872781456e-02f, 9.759249166e-03f, 3.776334971e-02f, -3.626748919e-02f, -8.139919373e-04f, -1.355428947e-03f, 4.403331783e-03f, -3.311475157e-04f, -2.690734155e-02f, 3.073773580e-03f, -8.712428622e-03f, -1.418447681e-02f, -3.669795766e-02f, -6.857069675e-03f, -7.027592976e-03f, 2.362777479e-02f, -6.248238496e-03f, 1.918992773e-02f, 7.947082631e-03f, -2.637985162e-04f, 4.205079004e-02f, 2.346559428e-02f, -1.871162653e-02f, -6.175277289e-03f, -8.453554474e-03f, 3.747177124e-02f, 1.163152419e-02f, -4.102286475e-04f, -2.839486348e-03f, 1.893087104e-02f, -2.795199305e-02f, -9.456823580e-03f, 2.083691582e-02f, -1.026934199e-02f, 5.272190087e-03f, 9.349531494e-03f, -6.989787798e-03f, -1.358514838e-02f, 4.025986418e-02f, -1.095506642e-02f, -2.462026849e-02f, 4.800073057e-02f, -4.780856892e-03f, -2.701271151e-04f, 7.230071817e-03f, 2.968105720e-03f, 2.513935976e-02f, -4.652793705e-02f, -1.871605217e-02f, 2.543551661e-02f, 2.005710639e-02f, 1.920637861e-02f, -2.834869362e-02f, 8.956130594e-03f, 8.754372247e-04f, -1.745653152e-02f, -4.869682249e-03f, -1.651928574e-02f, -6.668494083e-03f, 1.324278675e-02f, 2.781751566e-02f, 1.349230297e-02f, -1.211575884e-02f, 9.765679948e-03f, -2.146128565e-02f, 7.722076029e-03f, -1.267808676e-02f, 2.932132967e-02f, 6.738908589e-03f, -2.345001325e-02f, -1.401780173e-03f, -4.800323863e-03f, 5.585701205e-03f, -7.613610942e-03f, 1.943441108e-02f, 2.634723857e-02f, -7.020825520e-03f, 1.437348081e-03f, 6.854242645e-03f, -3.440904617e-02f, -2.956006676e-02f, -1.335769240e-02f, -5.735614803e-03f, 7.616356481e-03f, 5.899569951e-03f, 1.897501759e-02f, 3.776588291e-02f, -4.287841544e-02f, 6.532967091e-03f, -1.699271239e-02f, 4.782320000e-03f, 2.100577019e-02f, 9.750450030e-03f, 7.979318500e-03f, -2.660222910e-02f, -6.637893617e-03f, 7.439543959e-03f, -3.928576037e-02f, -3.514409810e-02f, 1.010241173e-02f, -2.525976626e-03f, -4.742868245e-03f, -2.749254694e-03f, -2.278141864e-02f, -2.267804742e-02f, -5.277767777e-03f, 9.548940696e-03f, -2.741551585e-02f, -2.747095749e-02f, -8.545204066e-03f, 8.130066097e-03f, -8.625336923e-03f, 1.968826167e-02f, -8.748485707e-03f, -1.408819761e-02f, -3.493317962e-02f, -2.595338598e-02f, -1.285366714e-02f, -5.797853693e-02f, 2.457128605e-03f, -1.932300441e-02f, -2.279538102e-02f, 1.843988895e-02f, -1.538938750e-02f, 4.203108605e-03f, -1.470429124e-03f, 5.429811310e-03f, 1.917291991e-02f, 4.871392623e-03f, 1.019779406e-02f, -1.676641405e-02f, 3.754007816e-02f, -6.435045972e-03f, 2.065516450e-02f, -1.752012409e-02f, 9.347402491e-03f, 1.274692360e-02f, 1.862594113e-02f, -1.006988902e-02f, -1.397621445e-02f, -3.388773650e-03f, 3.533038497e-02f, 1.598143391e-02f, 2.910779417e-02f, -5.058883224e-03f, -6.927386392e-03f, 1.740146661e-03f, -5.440702662e-02f, -8.800343610e-03f, 2.785158344e-02f, -2.780489810e-02f, -1.015161816e-02f, 9.680963121e-03f, 5.324344616e-03f, 1.479193568e-02f, 5.258988589e-03f, 1.703735813e-02f, 3.916034475e-02f, 1.609637775e-02f, 1.651526615e-02f, 8.414846845e-03f, -2.962530032e-02f, 1.394541748e-02f, -1.883673854e-02f, 1.751133427e-02f, -2.811772935e-02f, 9.512754157e-03f, 6.221755408e-03f, 4.910051939e-04f, -8.938645013e-03f, 6.918758620e-03f, 4.634012002e-03f, 6.204257254e-03f, -4.520716902e-04f, -6.254745647e-03f, -4.915216472e-03f, -6.862082519e-03f, -7.938439958e-03f, -5.414637271e-03f, -4.881453235e-03f, 3.088970669e-02f, -7.724041119e-03f, -2.370193973e-02f, 1.143817557e-03f, -3.476777114e-03f, -1.793040149e-02f, -8.582307957e-03f, 2.237909473e-02f, 3.941554110e-03f, 2.277275547e-02f, -7.020378485e-03f, 1.644438319e-02f, -2.342646569e-02f, -1.721255109e-02f, -3.191918600e-03f, -2.006767876e-02f, -1.665023342e-02f, -8.308402263e-03f, 8.718750440e-03f, -1.067832485e-02f, 6.544952281e-03f, 2.694835328e-02f, 7.099685725e-03f, -1.132040378e-02f, 3.768250579e-03f, 1.084921975e-02f, -3.106517717e-02f, 2.384015732e-02f, -3.186329454e-02f, -6.428383291e-03f, 3.217989951e-02f, 4.488179926e-03f, -2.653456060e-03f, -8.811893640e-04f, -1.545447670e-02f, -3.010655753e-02f, 1.989788376e-02f, -1.491158176e-02f, 3.787262738e-02f, 8.717692457e-03f, 1.234864816e-03f, 3.855031729e-02f, -2.264026785e-03f, 1.767261885e-02f, 1.593886130e-02f, 1.708518481e-03f, 3.178538100e-05f, -8.936375380e-03f, 9.868952911e-04f, -2.320705168e-02f, -1.593555324e-03f, -9.210484102e-03f, 1.375254826e-03f, 1.564753056e-02f, 2.725278318e-04f, 6.832472514e-03f, -6.168461964e-02f, 1.911371946e-02f, 2.519487031e-02f, -4.143761005e-03f, -4.410548881e-02f, 5.769774318e-03f, -4.088138696e-03f, -2.090208232e-02f, -2.165861893e-03f, 9.690257721e-03f, 3.123873845e-02f, -2.353082038e-02f, 1.034905761e-02f, -5.677264649e-03f, -3.836735268e-04f, 2.358879708e-02f, 5.792028387e-04f, 3.566544876e-02f, -1.676224731e-02f, -5.446278956e-03f, -2.732638456e-02f, -1.323529892e-02f, 3.423547372e-02f, -4.305224866e-02f, 1.963435486e-02f, 2.728941664e-02f, 1.685077092e-03f, -1.564268954e-02f, -6.061806343e-03f, 1.235373784e-02f, -6.983052939e-02f, 1.239269320e-02f, 3.171575814e-02f, -2.605481260e-02f, -3.568016225e-03f, 2.138933912e-02f, 2.772528678e-02f, 2.467062697e-02f, 4.198366031e-02f, 8.478686213e-03f, -7.419824600e-03f, -2.238496207e-02f, 9.354026988e-03f, 1.545341779e-02f, -2.664958686e-02f, 1.118441764e-02f, 5.455139093e-03f, -7.976554334e-03f, -1.162527315e-02f, -6.377567071e-03f, 2.047414705e-02f, -2.235441236e-03f, -1.279378543e-03f, -2.524748445e-02f, -1.368090138e-02f, 3.344929218e-02f, -8.424073458e-03f, -8.951761760e-03f, 2.345782146e-02f, -1.607574895e-02f, -1.547122258e-03f, -1.316991914e-02f, -1.858544163e-02f, -9.046351537e-03f, 2.790872194e-02f, 6.507718936e-03f, 4.322123900e-02f, -2.926377207e-02f, -3.088403679e-02f, -8.257741109e-03f, 2.662177570e-02f, 7.914461195e-03f, -2.166615566e-03f, -5.912976805e-03f, 1.895198016e-03f, -1.693255454e-02f, 1.502731722e-02f, -1.340962574e-02f, -3.508912865e-03f, 2.074688859e-02f, -6.724256556e-03f, 3.543883795e-03f, 1.402035076e-02f, -3.450992331e-02f, -3.271852806e-02f, 3.334384784e-02f, -6.889988203e-03f, 1.718853042e-02f, -9.331334382e-03f, 1.869909093e-02f, -3.612863831e-03f, -3.808319801e-03f, -7.646282669e-03f, -2.577061392e-02f, 4.066824913e-03f, -2.064481191e-02f, -1.426170766e-02f, -2.102697827e-02f, -2.376511693e-02f, 1.818620414e-02f, -5.591729190e-03f, -3.729635384e-03f, 2.313760575e-03f, 1.470992249e-02f, 2.447637729e-02f, 9.375504218e-03f, 2.687737346e-02f, -1.079757791e-02f, -1.819066703e-02f, 3.634754196e-02f, -4.599626735e-02f, 8.377802558e-03f, 4.055231693e-04f, 6.268706638e-03f, -2.615290880e-02f, -2.558076754e-02f, -5.947218277e-03f, 6.204835139e-03f, 2.486129990e-03f, 1.075286977e-02f, 1.435816940e-02f, -3.602829948e-02f, 3.036537906e-03f, 3.428053111e-03f, -1.615175162e-03f, -1.373374648e-02f, -1.915608533e-02f, 1.733946428e-02f, -1.999543235e-02f, -1.609514817e-03f, 2.832555957e-02f, 4.319747444e-03f, -6.588308606e-03f, -3.950911015e-02f, -1.208939310e-02f, 2.738202922e-02f, 1.723507047e-02f, -9.337518364e-03f, 3.650157945e-03f, -6.338300183e-03f, -1.670300215e-02f, -1.177145354e-02f, -8.696318604e-03f, 2.450714260e-02f, -1.658080332e-02f, -1.481778547e-02f, 1.712323719e-04f, -1.001310442e-02f, 1.220790017e-02f, 5.617951509e-03f, -8.376442827e-03f, 1.745782606e-02f, -2.845859714e-02f, 1.162999868e-02f, -1.921127085e-03f, -6.662040018e-03f, 4.190014675e-03f, -1.480391249e-02f, -1.336810086e-02f, -2.431770973e-02f, 9.739660658e-03f, 1.833423972e-02f, -6.147874054e-03f, -1.252055634e-02f, -5.172018893e-03f, -1.087753288e-02f, 1.243405510e-02f, 2.404924110e-02f, 1.806378365e-02f, 6.477879826e-03f, 1.425503008e-02f, -3.028330579e-02f, -2.011333220e-02f, -3.420119360e-02f, 1.184611209e-02f, 4.322965164e-03f, -2.975526452e-02f, 1.619143412e-03f, -2.587027103e-02f, -2.447228320e-02f, 2.643494867e-03f, -1.435965486e-02f, 4.618565366e-02f, 9.882092709e-04f, 4.200208187e-02f, -3.828525543e-02f, 3.073990345e-02f, -8.315081941e-04f, 4.430293571e-03f, 1.695869374e-03f, 1.760211587e-02f, 2.852112614e-02f, -2.690924099e-03f, -2.928801405e-04f, -3.418182209e-02f, 9.155507199e-03f, 1.053445600e-02f, 1.704308204e-02f, -1.206845138e-02f, 2.068341151e-02f, 2.618492581e-04f, -8.699716069e-03f, 1.307997108e-02f, -1.940637641e-02f, -1.578981802e-02f, 3.625419363e-02f, -3.565038554e-03f, -2.263244987e-02f, -1.335116336e-03f, -1.272800658e-02f, 7.100572810e-03f, 1.629012637e-02f, 4.761957563e-03f, 4.078429658e-03f, -3.876463976e-03f, -2.458483912e-02f, -3.830155358e-02f, 3.163861856e-02f, 3.869396076e-02f, 1.661288738e-02f, 1.367160003e-03f, 1.081969589e-02f, 2.254570462e-02f, 3.626790270e-02f, -4.025819246e-03f, -4.229878832e-04f, 7.406096905e-03f, 1.278869621e-02f, 5.835683085e-03f, -4.198088776e-03f, 3.139476990e-03f, 3.392516077e-02f, -6.834807340e-03f, 7.045013830e-03f, -1.823646575e-02f, 2.149289474e-02f, 8.854368702e-03f, 5.839229096e-03f, -2.754330635e-03f, -7.851770148e-03f, -2.589103393e-02f, -1.397946849e-02f, 7.994666696e-03f, 3.874187171e-02f, -3.119493485e-04f, 1.384316292e-02f, -1.017666887e-02f, 1.134324633e-02f, -2.071787231e-02f, 1.521975361e-02f, -5.713241175e-03f, 5.916649010e-03f, -4.228653386e-03f, 2.694915049e-02f, -4.370959010e-03f, 5.630093627e-03f, 7.524817251e-03f, -1.836708188e-02f, -2.981371246e-03f, -3.873588052e-03f, 2.068006434e-02f, -2.339125611e-02f, 7.570705377e-03f, -6.775151938e-03f, -9.347814135e-03f, 2.341648936e-02f, -6.519509107e-02f, 4.817187320e-03f, 3.634763509e-02f, 1.495230198e-02f, 6.830763537e-03f, 1.803962141e-02f, -2.140370756e-02f, -6.646313705e-03f, -1.131818723e-02f, -3.565087169e-02f, -2.061035857e-02f, -1.260102820e-02f, 7.248740643e-03f, -4.617237486e-03f, 1.514780335e-03f, 6.441368256e-03f, 1.590929925e-03f, -2.339807898e-02f, 4.465277307e-03f, 1.500450913e-02f, 2.738656243e-03f, 9.903130122e-04f, -1.309826318e-02f, 4.946523346e-03f, -4.062909633e-02f, -4.437226802e-02f, 4.541588482e-03f, 9.203152731e-03f, 1.940619387e-02f, 1.805500686e-02f, -2.546671964e-02f, -3.948808461e-02f, 5.998885725e-03f, 2.421246655e-02f, 2.847005054e-02f, 1.792264730e-02f, -6.662772037e-03f, -2.132534049e-02f, -1.631042175e-02f, 1.333951601e-03f, -9.354880080e-03f, 2.546531148e-02f, -8.982687257e-03f, 4.503637180e-02f, -1.293065120e-02f, 8.564197458e-03f, 3.995795548e-02f, 2.455486171e-02f, -1.108549652e-03f, 6.629558280e-03f, 1.344482601e-02f, -2.417712100e-02f, 1.156902872e-02f, 5.286459345e-03f, 6.063817535e-03f, -1.497887913e-02f, -1.833148301e-02f, 2.897603437e-02f, 3.872058820e-03f, 4.331084434e-03f, 9.243260138e-03f, -1.198878698e-02f, -2.641514689e-02f, -1.473825192e-03f, 1.873742230e-02f, -1.097049844e-02f, 7.124154363e-03f, 6.361527834e-03f, -1.102607418e-02f, -1.063585468e-02f, 1.229973743e-03f, -1.283136848e-02f, -6.637345068e-04f, 1.060626470e-02f, 1.953923702e-02f, -1.319692936e-02f, -1.156571601e-02f, -2.465647459e-02f, 3.739512712e-02f, 8.414533921e-03f, -3.089759964e-03f, -1.874713786e-02f, -2.019622596e-03f, -1.807248965e-02f, -2.733773179e-02f, 8.231074549e-03f, -1.337868534e-02f, 1.721282303e-02f, -2.538325079e-02f, -2.524577640e-02f, 1.480762474e-02f, 2.532720752e-02f, 5.635236739e-04f, 8.879266679e-03f, 1.387615968e-02f, -8.042569272e-03f, 2.909340151e-02f, -1.193429250e-02f, 2.787861787e-02f, 2.312365919e-02f, 1.788269845e-03f, 4.255202040e-02f, 4.464116320e-02f, 9.015203686e-04f, 3.553527873e-03f, 5.173826125e-03f, 7.933109999e-03f, 5.299420096e-03f, 1.391298696e-02f, -1.810545102e-02f, -1.273829397e-02f, 1.713013463e-02f, -3.213994205e-02f, -2.198280022e-02f, 8.121237159e-03f, -7.667315658e-03f, -2.152927034e-02f, -1.483318303e-02f, -3.879682627e-03f, 1.029388979e-02f, 2.421993762e-02f, 1.278030220e-02f, 1.471159793e-02f, 3.432566766e-03f, 2.365405113e-02f, -1.965495013e-02f, 2.638199925e-02f, -2.503977157e-02f, 1.010026666e-03f, -2.042426029e-03f, -2.887686715e-02f, -9.015475516e-04f, -4.242463037e-02f, 7.595460629e-04f, -8.154278621e-04f, -1.613920741e-02f, 1.405227836e-02f, -3.974402696e-02f, 3.316353634e-02f, -2.087924629e-02f, 1.114385948e-02f, -1.396417245e-02f, 1.701735146e-02f, 3.304851428e-02f, -2.193010226e-02f, 1.714227255e-04f, 2.071323991e-02f, 1.569568738e-02f, 1.375901327e-02f, 3.331039473e-02f, 1.513858046e-02f, -3.425696341e-04f, -2.088769712e-02f, 4.462981597e-03f, -1.517052483e-02f, -2.709250664e-03f, -6.628692499e-04f, -6.248502177e-04f, -7.906986400e-03f, -4.790674523e-02f, 2.382323844e-03f, 1.673899218e-02f, 1.013389323e-02f, 3.042557649e-02f, -1.169859339e-02f, -1.455259416e-02f, -3.876561066e-03f, -4.082384985e-03f, 2.579081059e-02f, -9.449255653e-03f, 1.952387206e-02f, -1.133786049e-03f, 6.896038074e-03f, -9.851362556e-03f, 1.978580840e-03f, 1.922697946e-02f, -3.225368261e-02f, -8.060310967e-03f, -1.646635868e-02f, -4.144685343e-02f, -1.541499235e-02f, 8.517135866e-03f, 8.844736964e-03f, 1.299474575e-02f, 8.808942512e-03f, 1.225497108e-02f, 3.647432476e-02f, 2.275744639e-02f, -1.560880919e-03f, 2.154319920e-02f, 6.215806585e-03f, -7.026392501e-03f, 2.066943422e-02f, 9.909832850e-03f, 2.649882250e-02f, -3.870699927e-02f, -6.688648835e-03f, 2.258420177e-02f, -1.051822398e-02f, -8.882430382e-03f, 1.280128211e-02f, -2.139059454e-02f, 1.849631371e-04f, 2.831069566e-02f, -4.707073048e-02f, 1.699408330e-02f, 4.632218275e-03f, 1.937739551e-02f, -2.809184045e-02f, -1.892262697e-02f, 2.589958347e-02f, -6.809538230e-03f, 1.659690775e-02f, -2.206262574e-02f, 3.461017832e-02f, 1.611257344e-02f, 8.542991243e-03f, -2.298197011e-03f, 4.482852761e-03f, -2.122046985e-02f, -6.834865548e-03f, -2.591539174e-02f, -2.324772812e-02f, -2.323494293e-02f, -1.435649861e-02f, -5.791529082e-03f, -7.740993984e-03f, 1.712492853e-02f, 2.029272728e-02f, 1.132977009e-02f, 5.917603616e-03f, -2.186677419e-02f, 2.218635008e-02f, 4.367538728e-03f, 1.544568874e-02f, 1.839101315e-02f, 6.195581052e-03f, 4.033977538e-02f, 1.832335629e-02f, 8.859857917e-03f, 4.670650512e-02f, -7.475904655e-03f, -1.642125100e-02f, 5.425726622e-02f, 9.340917692e-03f, 1.090892404e-02f, 7.753240876e-03f, 3.444620594e-02f, 1.448800694e-02f, 1.573505998e-02f, 7.737768814e-03f, -4.833111074e-03f, -1.582631283e-02f, -5.273083225e-03f, 6.675063167e-03f, 3.309040330e-04f, -9.335360955e-04f, 2.474659123e-03f, 2.823572978e-02f, 3.445461765e-02f, -1.895551803e-03f, 1.601693593e-02f, -4.264967516e-03f, 1.053921785e-02f, -3.956133034e-03f, -1.566201262e-02f, 2.113319747e-02f, 3.068549559e-02f, -1.756646670e-02f, 3.934800625e-03f, 1.317332033e-02f, -1.467036922e-02f, 3.571857885e-02f, 2.219730231e-04f, -9.927904233e-03f, -1.016467228e-03f, 4.680159315e-02f, 1.019041054e-02f, 8.326672018e-03f, 9.527211078e-03f, -4.068935756e-03f, -1.268094778e-02f, 3.111517988e-02f, -1.378964353e-02f, -6.008931436e-03f, -1.287597790e-02f, 1.354049146e-02f, -2.160142921e-02f, 1.253611874e-02f, 3.904270008e-02f, -2.194136847e-03f, 6.732187234e-03f, 1.315984316e-02f, 2.982701641e-03f, -1.425371133e-02f, 3.851693589e-03f, -3.822886199e-02f, -2.276625950e-03f, -1.057483628e-02f, -3.803027794e-02f, -3.679041564e-02f, -2.664807485e-03f, -6.909741787e-04f, -2.512766980e-02f, 7.053084671e-03f, 2.648366848e-03f, -2.303230949e-02f, -2.817390673e-02f, -2.697795071e-02f, -1.187004964e-04f, -3.074038588e-02f, 7.456238847e-03f, 1.199646108e-02f, 6.608491298e-03f, -1.841220818e-02f, 1.108160987e-02f, -1.587879285e-02f, -1.426928118e-02f, 3.820672282e-04f, -1.236082334e-02f, 1.986391284e-02f, 1.006064378e-02f, 5.225441884e-03f, 1.130314171e-02f, -5.873974878e-03f, -3.038342856e-02f, 3.837491944e-02f, -1.571109286e-03f, -1.937342994e-02f, 4.059109371e-03f, 1.316841971e-02f, 2.881179564e-02f, 3.152875230e-03f, -7.738847751e-03f, -1.106229611e-03f, 8.357316256e-04f, -2.256291732e-02f, -3.113759449e-03f, 2.160602063e-02f, 5.145036615e-03f, -8.150172420e-03f, 4.085498862e-03f, 3.451884538e-02f, 2.582753822e-02f, -9.982123971e-03f, 2.043582685e-02f, 3.558562696e-02f, 1.299338508e-02f, 2.455919515e-03f, 1.604737155e-02f, -3.817721084e-02f, -7.076058071e-03f, 2.242021449e-02f, 3.520114347e-03f, -2.763415314e-02f, 1.068128552e-02f, 6.434684992e-02f, 2.404485829e-02f, 1.688567735e-02f, 4.967404064e-03f, -2.343134768e-02f, -2.209424041e-02f, 1.448651403e-02f, 4.193541594e-03f, -9.681639262e-03f, 1.794551313e-02f, 2.853951883e-04f, 1.794655458e-03f, 3.469919041e-02f, -2.027609758e-02f, 1.163687557e-02f, 1.292961370e-02f, 9.110492654e-03f, 5.343491212e-03f, 4.533270374e-03f, 9.792967699e-03f, 1.395453699e-02f, 7.218120620e-03f, 1.485638134e-02f, 3.827403486e-02f, -1.076205913e-02f, -1.526957750e-02f, 7.636505645e-03f, -2.077763900e-02f, -1.444517728e-02f, 2.372129587e-03f, -1.489799935e-02f, 1.192131196e-03f, -2.060150541e-02f, 1.839078590e-02f, 2.151722088e-02f, 3.307047859e-02f, -3.674013168e-02f, -8.127951063e-03f, 2.495728619e-02f, -5.259323120e-02f, -1.215668395e-02f, 1.163691375e-02f, 1.715130731e-02f, 1.955706999e-02f, 2.545659430e-02f, -2.812599577e-02f, 1.489198487e-02f, 3.955099359e-02f, -3.370912373e-02f, 7.275863085e-03f, -1.031804550e-02f, 2.320298925e-02f, -2.387438901e-02f, -2.156095766e-02f, -2.790393680e-02f, -1.208302565e-02f, 1.922892593e-02f, -2.812565304e-02f, 2.453550138e-02f, 2.797738090e-02f, 2.070622705e-02f, -9.523232584e-04f, 1.693659276e-02f, 1.776466332e-02f, 2.773794532e-02f, 3.092892282e-02f, -5.001581274e-03f, 2.946318500e-02f, 1.509133144e-03f, -2.495437302e-02f, 5.111576058e-03f, 8.299157023e-03f, 2.058577910e-02f, -1.390402322e-04f, 3.632102860e-03f, 2.538419142e-02f, 6.377082784e-03f, -6.537262816e-03f, 1.163050346e-02f, -3.298292682e-02f, -1.490413398e-02f, 1.279801503e-02f, -1.622606069e-02f, -2.952214703e-02f, 1.552978717e-02f, 1.296139229e-02f, -1.710363664e-02f, -3.529603779e-02f, -2.342244051e-02f, 1.519734133e-02f, -1.486458350e-02f, -2.608337253e-02f, 2.120239893e-03f, 1.185582299e-02f, 5.783253815e-03f, -6.545718759e-03f, -1.382800285e-02f, -3.381399810e-02f, -3.946068173e-04f, -2.608880959e-02f, -9.305543266e-03f, 1.238594856e-02f, 1.192228962e-02f, 1.218280289e-02f, 4.345721006e-02f, -7.887918036e-04f, 1.330604777e-02f, 1.637328975e-02f, -3.149000229e-03f, 2.249977551e-02f, -2.244328894e-02f, -2.785599977e-02f, 1.020957250e-02f, -2.293726429e-02f, -5.201047659e-02f, -9.434207343e-03f, -7.277725963e-04f, 1.213788148e-02f, 3.199743805e-03f, -6.853213534e-03f, 1.504230499e-02f, 2.450836450e-02f, -1.307664672e-03f, 5.844227038e-03f, 1.353778318e-02f, 6.066667382e-03f, 4.663968459e-03f, 2.464738116e-02f, -2.873539552e-02f, 5.947733298e-04f, 3.056157194e-02f, -2.310736664e-02f, 2.355546691e-02f, -1.080365758e-02f, 2.676528879e-02f, -1.280393172e-02f, -2.006840706e-02f, -3.124743141e-02f, -7.350345608e-03f, -1.870900206e-02f, 1.077267062e-02f, 1.028395258e-02f, -1.000126576e-05f, -1.973123755e-03f, -1.713274792e-02f, 1.332530566e-02f, -2.204074292e-03f, 1.943831146e-02f, -1.548449602e-02f, -7.413443644e-03f, 3.333387896e-02f, -6.106295623e-03f, 2.175902762e-02f, -1.445926074e-02f, 4.086377099e-02f, 1.831161976e-02f, 3.699424490e-02f, -2.252779668e-03f, -2.127429470e-02f, -2.965977788e-02f, -1.024010871e-02f, -2.440308779e-02f, -2.614468802e-03f, 8.145145141e-03f, 8.148030378e-03f, -3.056420945e-02f, 3.779071942e-02f, -1.973768696e-02f, -3.100520000e-02f, -1.001116121e-03f, 4.402074032e-03f, 6.427660992e-05f, -1.529102155e-04f, 8.641557768e-03f, -2.012854815e-02f, 1.486777444e-03f, 3.479672223e-02f, 9.371602209e-04f, 2.188490331e-02f, 5.413741805e-03f, -6.625734270e-03f, 8.538343012e-03f, 8.314639330e-03f, -2.741619945e-02f, 1.653786004e-02f, -1.280375849e-02f, -9.301697835e-03f, 3.377986141e-04f, -5.130953621e-03f, 6.163974758e-03f, -6.352695171e-03f, 7.688933983e-03f, -3.635704145e-02f, -3.050476778e-03f, 1.813073643e-02f, -1.445924584e-02f, -1.423119195e-02f, 1.063247561e-03f, -4.133667797e-02f, -1.404120680e-02f, -1.631892473e-02f, 6.039258465e-02f, 1.087108720e-02f, -1.117835939e-02f, 2.986459993e-02f, 8.547643200e-03f, -1.030742377e-02f, 2.470874041e-02f, 4.749916494e-03f, -3.125869855e-02f, 8.295580745e-03f, 2.789591067e-02f, -3.692503273e-02f, -4.140349850e-02f, -1.206636429e-02f, -2.526904456e-02f, -2.642383054e-02f, 1.120008435e-02f, 9.268549271e-03f, -1.866043359e-02f, -3.323894693e-03f, 5.835878197e-03f, 2.617392689e-02f, -9.269344620e-03f, 2.895684913e-02f, -1.908675767e-02f, 2.790330537e-02f, -7.324391510e-03f, -6.347477436e-03f, -1.333809271e-02f, 1.064159255e-02f, 1.062708907e-02f, 3.325462341e-02f, 1.576933078e-02f, -9.509560652e-03f, 6.735518575e-03f, 3.521191329e-02f, -1.869137981e-03f, -8.737946860e-03f, 1.244363748e-02f, -9.464040049e-04f, -4.079923406e-02f, 1.792634279e-02f, -2.532316186e-02f, -3.292331100e-02f, 3.308991669e-03f, -2.466804534e-02f, -9.245888330e-03f, 4.160422832e-02f, -4.594264552e-02f, -5.713195540e-03f, -5.389144178e-03f, -1.003067754e-02f, 4.125516489e-02f, -2.318230085e-02f, -1.465242356e-02f, -1.696533896e-02f, 2.861965820e-02f, -2.675210871e-02f, 1.668077894e-04f, 3.834366053e-02f, -3.781610355e-02f, 2.898102440e-02f, 2.610725909e-02f, 2.446977794e-02f, 3.561561927e-02f, 3.268742561e-02f, -4.456286877e-02f, -1.818458736e-02f, -7.773000281e-03f, -1.952926628e-02f, -5.243914202e-03f, -2.127648145e-02f, 5.003105849e-03f, -1.020727959e-02f, -2.042847127e-02f, -1.346098259e-02f, -1.035505068e-02f, 1.022276748e-02f, 9.003485553e-03f, -8.849169128e-03f, -4.341764376e-02f, -3.664052114e-03f, -1.803758368e-02f, -3.281209618e-02f, 1.312938891e-02f, 5.502617452e-03f, -8.939494728e-04f, -3.651738400e-03f, -9.837652557e-03f, 4.370844457e-03f, -4.281959962e-03f, -2.681649849e-02f, 1.376727875e-02f, 3.671676619e-03f, 1.343991887e-02f, 7.187464274e-03f, 7.647670573e-04f, 4.024400562e-02f, 2.294101007e-02f, 1.466713194e-02f, 2.204337623e-03f, -1.239722013e-03f, 9.151924402e-03f, -4.395167925e-04f, 1.858360879e-02f, 1.312436536e-02f, -3.716860432e-03f, 2.229586802e-02f, 1.146568637e-02f, -4.345558211e-02f, -4.942788277e-03f, -3.412323305e-03f, 8.632146753e-03f, -6.339629740e-02f, -1.119192224e-02f, 4.461752251e-03f, -1.658482663e-02f, 1.867103390e-02f, -1.260628225e-03f, -4.883699119e-03f, -8.721396327e-03f, 1.035147533e-02f, -2.858570777e-02f, -1.460542530e-02f, -1.718789339e-02f, -1.563313534e-03f, 2.113073692e-02f, 4.915918782e-02f, 1.236569416e-02f, 1.470904518e-02f, -8.559133857e-03f, -1.834066771e-02f, 3.387446702e-02f, 1.646068506e-02f, 2.735099057e-03f, -1.379191969e-02f, 2.811408043e-02f, -9.976641275e-03f, 1.804977469e-02f, -2.267534379e-03f, -2.279820479e-02f, -4.993127659e-03f, -1.018270478e-02f, 6.275225896e-03f, 1.599182002e-02f, -4.353103228e-03f, 1.266345475e-02f, -1.453816146e-02f, -1.802863739e-02f, 2.564490773e-02f, -3.407343524e-03f, -1.465653884e-03f, -2.528779395e-02f, 7.742420305e-03f, 1.668248558e-03f, 1.146732550e-02f, -3.887791932e-02f, -1.904741861e-02f, -2.588264085e-02f, 1.994635537e-02f, -5.030460190e-03f, -1.970106363e-02f, 1.719567459e-03f, -1.313213632e-02f, 2.228501439e-02f, 1.935582841e-03f, -1.673095976e-03f, 2.993602492e-02f, -1.502377726e-02f, -5.428742617e-03f, -2.634265833e-02f, -4.173430800e-02f, 1.724895276e-02f, 4.748251289e-03f, 5.511311349e-03f, -2.553095110e-02f, -1.182104368e-02f, 1.819218509e-02f, -2.057651291e-03f, -3.417173028e-02f, -5.010399502e-03f, -1.860457659e-02f, 2.673621988e-03f, 1.330855954e-02f, 1.259966870e-03f, -2.730530687e-02f, -2.040370367e-02f, 4.920942243e-03f, 2.604277618e-02f, -1.356651913e-02f, -3.388768807e-02f, 1.934017986e-02f, -2.474167943e-02f, 2.634631237e-03f, -2.023754083e-02f, 3.118590079e-02f, -6.803946570e-03f, -2.400418930e-02f, -5.512781441e-03f, 4.954125034e-04f, 9.285590611e-03f, 9.955772199e-03f, -1.874347962e-02f, -9.149766527e-03f, -8.414154290e-04f, 1.738446206e-02f, -1.124074217e-02f, 8.044059388e-03f, -1.999617741e-02f, -2.076012827e-02f, -6.142588332e-03f, 9.307556786e-03f, -1.162463799e-02f, -5.115916487e-03f, -2.536830306e-02f, -5.612891540e-02f, -2.823823690e-02f, 1.848693192e-02f, 7.913806476e-03f, -1.351780631e-02f, -3.035517596e-02f, 7.828866132e-03f, -4.042494670e-02f, -6.575857289e-03f, -1.860135421e-02f, 1.359229907e-03f, 3.409740329e-02f, 4.216134548e-03f, 3.120768443e-02f, 7.886197418e-03f, -1.839696802e-02f, 3.674185427e-04f, 1.321119606e-03f, -2.985225804e-02f, 2.595927253e-05f, -2.288133278e-02f, 3.577420115e-02f, 9.325307794e-03f, 3.668321995e-03f, -1.149748918e-03f, -4.644734412e-02f, 2.421838418e-02f, -5.386897363e-03f, -2.831777558e-02f, 3.854327649e-02f, 9.223787114e-03f, 8.329069242e-03f, 1.002825797e-02f, -1.347621903e-02f, -9.903944097e-03f, -1.254209224e-02f, 4.465624318e-02f, -3.211015463e-02f, 1.965820231e-02f, 1.403332781e-02f, -1.574803516e-02f, -7.042466197e-03f, -3.669752041e-03f, -4.146730155e-02f, -3.080513328e-03f, 4.044198990e-02f, 1.102023851e-02f, -1.823638799e-03f, 1.173611963e-03f, -1.874252036e-02f, -1.856476814e-02f, 2.686827676e-03f, 1.681092079e-03f, -1.031793375e-02f, -1.272090990e-02f, 9.264957160e-03f, 2.995327115e-02f, -9.134383872e-03f, 3.702384606e-02f, -2.862454019e-02f, 8.551467210e-03f, 6.097406640e-06f, -1.673408411e-02f, 2.856879868e-02f, 8.900100365e-03f, 1.408915687e-02f, -1.919075265e-03f, -1.246224158e-02f, -3.242211416e-02f, -2.287407778e-02f, 3.941409662e-02f, -4.435366392e-02f, -3.032915853e-02f, -5.719478708e-03f, -1.846698672e-02f, -2.761023492e-02f, 3.340770025e-03f, -5.094856606e-04f, -4.476665705e-02f, 1.837900467e-02f, -1.147635048e-03f, 2.067952417e-03f, 3.358173883e-03f, 8.258924820e-03f, -2.651233226e-02f, 1.509636175e-02f, 2.951988578e-02f, -1.337979548e-02f, 2.158931165e-04f, 3.355295956e-02f, 4.154462833e-03f, 3.421132686e-03f, -1.470987964e-02f, -2.038947120e-02f, -1.865443587e-02f, 7.199025713e-03f, -1.925912802e-04f, -2.559375949e-02f, 5.685833748e-04f, -1.152403560e-02f, 3.011273779e-02f, 3.036904708e-02f, 1.605869643e-02f, 2.498196997e-02f, 2.585143037e-02f, 3.322311211e-03f, 1.485724119e-03f, 1.838277280e-02f, -1.577020809e-02f, -3.373065963e-02f, -1.255026087e-02f, 3.287109546e-03f, -1.221943274e-02f, -1.498234924e-02f, -4.466026090e-03f, -9.312375332e-04f, -2.429445274e-02f, -7.182025816e-03f, 4.062581342e-03f, 1.152010914e-02f, 7.446215488e-03f, 2.180072106e-02f, -8.615721948e-03f, -4.851207510e-02f, -1.347296638e-03f, -5.795219168e-02f, 1.899187570e-03f, 5.068511236e-03f, -3.374819877e-03f, -3.226074204e-02f, 1.806072704e-02f, 7.474521641e-03f, -2.776584355e-03f, 3.213171288e-02f, -4.662732128e-03f, -1.421884727e-02f, -1.071074978e-02f, -2.480849437e-02f, 1.290793996e-02f, 1.267294772e-02f, -4.640315473e-02f, -8.591678925e-03f, -3.326483816e-02f, -1.814764738e-02f, -9.671557695e-03f, 2.125457674e-02f, -1.344173402e-02f, 8.931069635e-03f, 1.233951747e-02f, -5.379773211e-03f, 2.363880351e-02f, -2.185482718e-02f, -1.875458285e-02f, -2.454202063e-02f, -1.224107202e-02f, 1.355056372e-02f, 1.811816357e-02f, -2.346353792e-02f, -1.219270402e-03f, -2.258113818e-03f, -3.302938072e-03f, 5.417422391e-03f, -1.802438684e-02f, 1.771945320e-02f, -2.748229355e-02f, -3.970285133e-02f, -2.186283283e-02f, -6.886638235e-03f, 1.199278049e-02f, -3.574724495e-02f, -4.526979756e-03f, 5.073840730e-03f, 1.429991703e-02f, -2.966677211e-02f, -2.319668420e-02f, 8.876695298e-03f, -2.581787296e-03f, 1.020045392e-02f, -2.034368180e-02f, -1.760600694e-02f, 3.111916222e-02f, 8.255586959e-03f, 1.393299829e-02f, 1.003581099e-02f, -5.791585427e-03f, -8.762718178e-03f, 5.471386015e-03f, 2.293404937e-02f, 1.317542884e-02f, -5.194108002e-03f, 9.935162030e-03f, -3.398863832e-03f, 6.500274688e-02f, 9.410140105e-03f, -3.908598050e-02f, 1.423725113e-02f, 3.793271491e-03f, 8.465954103e-03f, 2.855268121e-02f, -5.621890072e-03f, 1.268321648e-05f, -5.314808805e-03f, -9.885094129e-03f, 1.327723730e-02f, 8.582658134e-03f, -3.537108749e-02f, 3.992280364e-02f, 1.697161497e-04f, 4.851182923e-03f, 4.437732045e-03f, -1.184049807e-02f, 2.278852090e-02f, -1.637449488e-02f, 1.160628255e-02f, 2.808233164e-02f, 1.778845303e-02f, 1.943722949e-03f, 2.042927034e-02f, -1.112189703e-02f, -1.562054642e-02f, -4.964197986e-03f, -2.033528499e-02f, 1.269885618e-02f, -1.239318028e-02f, 2.339799888e-02f, -3.819970181e-03f, -2.713743784e-02f, -7.388874888e-03f, 1.568965055e-02f, -3.668858437e-03f, 1.365638338e-02f, 1.346301381e-02f, 6.044954993e-03f, -2.773490362e-02f, -1.302526915e-03f, 2.069837786e-02f, -1.167791616e-02f, -5.579587072e-03f, 3.769011423e-02f, -4.279986396e-02f, 1.480306382e-03f, -1.685883035e-03f, 3.096593544e-03f, -1.700671762e-02f, 5.803080741e-03f, 2.119384892e-02f, 7.848351263e-03f, -1.804199815e-02f, 6.304582348e-04f, 9.983530268e-03f, 8.333520032e-03f, -2.695199847e-02f, -5.892093107e-02f, -1.069336198e-02f, 2.770457044e-02f, -2.924301289e-02f, -2.025611140e-02f, -2.294429764e-02f, 6.430294365e-03f, -3.177982941e-02f, 9.496132843e-03f, -5.674994085e-03f, 5.278612487e-03f, -3.542641934e-04f, 5.241678655e-02f, 3.558465466e-02f, -8.527963422e-03f, 6.487356499e-03f, 6.508579478e-03f, 4.860018846e-03f, 1.164868847e-02f, -1.179071795e-02f, -1.667503268e-02f, -2.227307670e-02f, -1.546924934e-02f, 1.071712188e-02f, 2.462702570e-03f, -9.938439354e-03f, -1.092925668e-02f, 3.137153015e-02f, -3.355082124e-03f, 1.558355521e-02f, -3.390064090e-02f, -1.910045370e-02f, 1.904070750e-02f, 1.534545678e-03f, 7.793997880e-03f, -1.475127693e-02f, 1.483703312e-02f, 1.601403952e-02f, -2.950458229e-02f, 6.705566193e-04f, 2.045200020e-02f, 3.193530813e-02f, 1.861309633e-02f, 2.169049531e-02f, -4.715507850e-03f, 2.726943931e-03f, 1.878999732e-02f, -1.867707074e-02f, -8.034118451e-03f, -1.215673704e-02f, -9.067988954e-03f, 5.175114609e-03f, 1.213524956e-03f, 8.543124422e-03f, 2.457017079e-02f, 1.184141263e-02f, 4.434916656e-03f, -4.068792332e-03f, -1.253802702e-02f, 1.571755297e-02f, -2.510282025e-02f, -1.831814833e-02f, -1.096211839e-02f, -1.890224230e-04f, 2.647366375e-03f, 1.811962575e-02f, -2.770496719e-02f, 9.745148942e-03f, -1.601611637e-02f, -1.609233767e-02f, -2.303899452e-02f, -1.873641647e-02f, -6.306420546e-03f, 1.153158676e-02f, 1.398431137e-02f, -6.729905959e-03f, -5.731831770e-03f, -7.248051465e-03f, -2.870757692e-02f, -6.744238548e-03f, 3.064852208e-02f, -4.364887136e-04f, -7.230110001e-03f, 1.458317693e-02f, 1.442280505e-02f, -1.928056590e-02f, 2.933370415e-03f, -3.333929181e-02f, 1.179048140e-02f, -2.804686688e-02f, 3.217297047e-02f, 1.791921817e-02f, -2.120455168e-02f, -2.335784025e-03f, 9.500600863e-04f, -8.029347286e-03f, -2.248887159e-02f, 3.147053719e-02f, 3.053237218e-03f, -1.321259304e-03f, 1.995141059e-02f, -4.734664783e-02f, 2.974617481e-02f, -4.734234419e-03f, 1.448823139e-02f, 1.163619291e-02f, -2.312366385e-03f, -1.619574428e-02f, 4.436362535e-02f, -1.205292647e-03f, 7.177339401e-03f, 5.239059217e-03f, -1.127981301e-02f, -2.274908684e-02f, 1.954445429e-02f, 3.329004347e-02f, -9.922888130e-04f, 1.888284460e-02f, 1.036804449e-02f, -1.988866925e-02f, -2.404210903e-02f, 1.314055175e-02f, 1.722209156e-02f, 4.831703845e-03f, 8.480923250e-03f, 2.408630389e-04f, -2.672696486e-02f, 6.664026994e-03f, 1.527487882e-03f, 4.260272533e-02f, 2.031408995e-02f, 2.277697250e-02f, -3.473539604e-03f, -1.219649334e-02f, -1.174628083e-02f, 1.900768280e-02f, 1.426591165e-02f, -4.333676188e-04f, -2.924065571e-03f, -2.921071276e-02f, -1.194593869e-02f, 9.713725187e-03f, 6.126702763e-03f, -1.909575425e-02f, 3.956745844e-03f, -1.066951826e-02f, 8.938242681e-03f, 2.048107050e-02f, -1.261775475e-02f, -3.876047267e-04f, 9.479790926e-03f, 1.635887288e-02f, -1.086964738e-02f, -9.030127898e-03f, -7.484483067e-03f, 3.799080150e-03f, 5.649932846e-02f, -8.969821036e-03f, 9.182282723e-03f, -1.189458300e-03f, -2.866752818e-02f, -4.104265943e-03f, -2.706007101e-02f, 2.901452780e-02f, 4.231063649e-02f, 3.163332585e-03f, -2.691414580e-02f, -1.735455543e-02f, -3.338313848e-02f, 8.866164833e-03f, -5.253031477e-02f, -4.801407084e-02f, 1.543520018e-02f, -2.337200195e-02f, 1.206246670e-02f, 1.202821848e-03f, 1.899347641e-02f, -2.462461032e-02f, -1.456099842e-02f, 3.473795485e-03f, 1.925815642e-02f, -7.347811479e-03f, 1.600812562e-02f, -3.630127758e-02f, 8.350095712e-03f, 1.023493242e-02f, 3.198165447e-02f, -1.403780747e-02f, 2.749421261e-02f, 2.347672125e-03f, -2.936404897e-03f, -2.140131593e-02f, -1.203118265e-02f, 1.311112009e-02f, -1.292253612e-03f, -3.026463650e-02f, -7.690113503e-03f, -3.128745407e-02f, 4.108891822e-03f, 2.095730277e-03f, -1.607412100e-02f, -1.766898856e-02f, 2.744340524e-02f, -4.249398038e-02f, 2.331549674e-02f, 1.564295962e-02f, -7.860899495e-05f, 1.790245250e-02f, 4.594646394e-03f, 6.869138218e-03f, 1.855981350e-02f, -1.237029769e-02f, -2.689917944e-02f, 1.244258415e-02f, -9.239682113e-04f, -4.544349015e-02f, 1.001570094e-02f, 4.010114819e-03f, 8.059986867e-03f, 1.052529085e-02f, 1.296697091e-02f, 2.625439316e-02f, -2.463645115e-02f, 1.989170909e-03f, -1.531627774e-02f, -1.230919734e-02f, -1.257151365e-02f, -1.992371306e-02f, -1.550611854e-02f, 2.984949946e-02f, -2.067379281e-02f, 1.802666113e-02f, 4.550781567e-03f, 1.918381080e-02f, -2.815522254e-03f, -1.880196482e-02f, -2.430027723e-02f, -5.562842707e-04f, 6.630647695e-04f, -2.737844829e-03f, 3.178144572e-03f, -3.648494184e-02f, 1.650250703e-02f, -5.837640259e-03f, -2.344392240e-02f, 2.112229355e-03f, -5.661953706e-03f, 1.762693562e-02f, 2.505193930e-03f, -6.330684992e-04f, 1.416013297e-02f, 3.258649958e-03f, 4.696709802e-04f, -2.549227327e-02f, 3.051212803e-02f, -1.618925598e-03f, 1.445428003e-02f, 2.547909878e-02f, -9.606791660e-03f, 9.861482307e-03f, -1.292558480e-02f, -1.313973777e-02f, -5.428052507e-03f, 4.517420661e-03f, -4.621786065e-03f, 8.036826737e-03f, 3.762547299e-02f, -3.473061696e-02f, 1.419105846e-02f, -2.799775079e-02f, -1.598129794e-02f, -1.953279041e-02f, -1.059996616e-02f, 1.113482565e-02f, 1.460083947e-02f, 1.648023725e-02f, 2.036141604e-02f, 2.258897014e-02f, 2.016328834e-02f, -2.362308837e-02f, 6.669109687e-03f, 1.370064728e-02f, 2.093825862e-02f, 3.859968483e-02f, -1.386126410e-02f, -3.987982403e-03f, 1.227139216e-02f, 2.321762498e-03f, -1.614494249e-02f, 1.679250738e-03f, -3.478292748e-02f, 3.566342592e-02f, -1.033146214e-02f, -8.582893759e-03f, -1.442561578e-02f, 4.277406260e-03f, -1.298149209e-02f, 1.825482177e-04f, -1.350121107e-02f, 1.414484438e-02f, -3.743088245e-02f, -1.690225117e-02f, -2.646692283e-02f, -3.162109992e-03f, 5.988930818e-03f, -2.401350997e-02f, 1.041537710e-02f, -2.992723137e-03f, -4.383614752e-03f, -7.246374153e-03f, -1.566005498e-02f, -2.343262359e-02f, 1.591421850e-02f, 3.181897476e-02f, 1.191842556e-02f, -3.094607778e-02f, 2.113842219e-02f, 1.103912108e-02f, -1.203690888e-03f, -2.713508159e-02f, 3.692341270e-03f, 1.113146171e-02f, 2.794772387e-02f, 8.886451833e-03f, -1.535972208e-02f, 1.699198224e-02f, 2.479650266e-02f, 1.057682838e-02f, 3.024239559e-03f, -1.705995062e-03f, 2.416056767e-02f, 2.125865594e-02f, -2.411959879e-02f, -8.950037882e-03f, 1.746730693e-02f, -5.692219827e-03f, 3.635699302e-02f, -3.284205450e-03f, -1.282134652e-02f, 7.988350466e-03f, 2.135141566e-02f, -3.204739839e-02f, -5.602568854e-03f, 2.449144144e-03f, -2.476946451e-02f, 3.970139101e-02f, 1.190292556e-02f, 1.068785670e-03f, 8.531372063e-03f, -9.971973486e-03f, 1.297609322e-02f, 2.714737318e-02f, 1.086030342e-02f, 2.121773921e-02f, 2.278983593e-02f, 1.984795183e-02f, 1.741010696e-02f, 1.328628417e-02f, 4.155963659e-02f, -2.541935444e-02f, 1.941438578e-02f, 8.774764836e-03f, 7.868720219e-03f, 1.613366976e-02f, 4.294632934e-03f, 5.311220512e-02f, 2.372560091e-03f, 2.781887166e-02f, 2.012771089e-03f, -1.181927882e-02f, 3.585685417e-02f, 3.722425026e-04f, -4.536871985e-02f, 2.169017680e-02f, 1.117046550e-02f, 3.371545300e-02f, -1.137719769e-02f, 7.065667305e-03f, 2.215348184e-03f, -1.176257897e-02f, 5.697836354e-02f, 2.051691525e-02f, 1.750200428e-02f, -1.329207420e-02f, -1.304367371e-02f, 1.501518115e-02f, -1.559868176e-02f, 3.694556653e-02f, 1.336652692e-02f, -3.221733868e-02f, -6.896098144e-03f, 4.468630627e-02f, -5.742477719e-03f, 2.199076675e-02f, 2.389057912e-02f, 3.086769767e-02f, -1.448486652e-02f, -1.775634941e-03f, 5.069445819e-02f, 4.681217484e-03f, 4.593710229e-02f, -3.334710374e-02f, 3.153542057e-02f, -9.709886275e-03f, -9.443324991e-03f, 3.182843328e-02f, 1.184922922e-02f, 2.439452522e-02f, -2.074357495e-02f, -8.627644740e-03f, -1.787155122e-02f, 2.373977331e-03f, -1.693516970e-02f, 9.258937091e-03f, -2.273473889e-03f, -2.937182412e-02f, -8.812533924e-04f, -3.560119867e-02f, -3.050977178e-02f, -1.989556849e-02f, 1.893906482e-02f, -3.650151566e-02f, 1.604534872e-02f, 4.018254206e-02f, 1.467996649e-02f, 4.840227775e-03f, -2.450212371e-03f, -1.901398227e-02f, -9.192883037e-03f, -3.704884276e-02f, 3.293859214e-02f, 2.246740088e-02f, -1.692507602e-02f, -3.441055864e-02f, -3.048440069e-02f, 1.003976073e-02f, -2.669667825e-02f, 6.539300550e-03f, -1.425404847e-02f, -5.438340455e-02f, 1.131256763e-02f, -7.407595403e-03f, -9.289512411e-03f, 1.278429013e-02f, -3.094647266e-02f, 3.166237846e-02f, 1.766639017e-02f, -9.543576278e-03f, -1.551499823e-03f, 1.964210719e-02f, -4.425767343e-03f, -1.981217973e-02f, 1.994648390e-02f, 1.564675011e-02f, -5.647690967e-03f, 1.700893044e-02f, 8.156143129e-03f, -4.092952237e-03f, -1.352006220e-03f, 1.525782235e-02f, -7.268161979e-03f, -6.420908030e-03f, -9.197453968e-03f, -1.303242170e-03f, -1.527324133e-02f, 3.036236949e-02f, 1.479804795e-02f, 1.824247465e-02f, -1.159905363e-02f, -2.939390764e-02f, 2.101323567e-03f, 3.945020027e-03f, 4.897553939e-03f, -1.373187359e-02f, -7.837854326e-03f, 3.204365261e-03f, 4.575591162e-02f, 2.346519940e-02f, 1.498052292e-02f, -4.268839490e-03f, 1.207621116e-02f, -9.304601699e-03f, 4.067715723e-03f, -6.599494722e-03f, -2.009948483e-03f, -2.360779792e-02f, 2.439765073e-02f, -1.486198604e-02f, 2.469330328e-03f, -6.679986138e-03f, 1.264187880e-02f, -1.336806547e-02f, 1.782156527e-02f, 7.087414619e-03f, -2.843093127e-02f, -9.196436033e-03f, -1.731725968e-02f, -2.301757922e-03f, 2.217797749e-02f, -4.116632976e-03f, -2.527108416e-03f, 1.419382822e-02f, 2.627775632e-02f, 3.737556562e-02f, 3.949794173e-02f, 3.105687723e-02f, 5.531245843e-03f, 6.011591293e-03f, 1.234897692e-02f, -7.465274073e-03f, 8.757120930e-03f, -1.974815386e-04f, 3.044589423e-02f, 9.260673076e-03f, 4.605995864e-02f, 3.914506640e-03f, 1.350740157e-02f, -1.100462209e-02f, 1.491861511e-02f, -4.103818908e-03f, 1.054433361e-02f, -1.977289468e-02f, 2.006808668e-02f, 3.334814392e-05f, 6.356427446e-03f, 2.526973188e-02f, -6.081931293e-03f, 1.942152344e-02f, 3.243327141e-02f, -3.071356751e-02f, -1.744754426e-02f, -1.834771712e-03f, 7.867982611e-03f, -4.173949733e-02f, 3.517565317e-03f, 2.224175632e-02f, 1.528696995e-02f, 1.415731036e-03f, -1.719656400e-02f, -2.910483256e-02f, -1.058298512e-03f, 2.925359644e-03f, -1.089102589e-02f, 5.885411520e-03f, -4.731801804e-03f, 1.401139796e-02f, 1.646941155e-02f, 5.649783649e-03f, -7.951296866e-04f, -2.665010653e-02f, -2.823747136e-02f, -1.661418751e-02f, -1.860979013e-02f, -3.556605079e-04f, 1.655531488e-02f, -2.162673138e-02f, -8.687777445e-03f, 2.051478019e-03f, -1.090705162e-03f, 1.286115870e-02f, -1.223199069e-02f, 3.683061525e-02f, -1.324402262e-02f, -2.913775854e-02f, -1.285525318e-02f, 1.461622398e-02f, 1.105013024e-02f, -1.847478002e-02f, 1.081975643e-02f, -2.927198820e-02f, -2.243605629e-02f, -8.148331195e-03f, 1.963666826e-02f, -6.538859569e-03f, -1.419719215e-02f, -3.745475318e-03f, 2.561024390e-03f, 4.211830348e-02f, -7.308437023e-03f, -3.663241863e-03f, 2.838887461e-02f, 2.117460407e-02f, -2.186706662e-02f, 1.578459144e-02f, -1.702420600e-02f, 8.377080783e-03f, -1.980558038e-03f, -9.573340416e-03f, -2.191965841e-02f, -9.265853092e-03f, -3.951824619e-04f, -6.919063628e-03f, 2.208388783e-02f, -1.275089197e-02f, -4.940260667e-03f, 1.796741597e-02f, 1.069063414e-02f, -5.113255698e-03f, 6.265248638e-03f, -7.500427309e-03f, -1.124552730e-02f, -2.025207318e-02f, 3.294838220e-02f, 1.436464256e-03f, -5.650689080e-02f, 1.081649493e-02f, 1.768861897e-02f, -4.698110279e-03f, -1.761728083e-03f, 2.894078009e-02f, 4.007084761e-03f, -7.003582548e-03f, 2.086523734e-02f, -1.366186421e-03f, -2.317126468e-02f, -1.081164088e-02f, -2.465562522e-02f, 1.279838290e-02f, -2.151806094e-02f, -5.086262897e-02f, -7.423839532e-03f, -7.165343035e-03f, 4.848672543e-03f, 6.401899736e-03f, -3.184505622e-04f, 5.290036555e-03f, 9.384240024e-03f, -2.094268426e-02f, 4.118866753e-03f, 7.412409410e-03f, -9.190639481e-03f, 1.298073027e-02f, 5.894731148e-04f, 1.523247547e-02f, 1.687896438e-02f, -1.120166387e-02f, 7.197849918e-04f, 7.004408166e-03f, 5.857542623e-03f, -2.008284256e-02f, -3.084606491e-02f, 5.542949773e-03f, -2.928003296e-02f, 3.767886758e-02f, 8.939897642e-03f, -2.158057131e-02f, -1.114538964e-02f, -6.876218133e-03f, 1.411072537e-02f, -1.881626318e-03f, 3.471911699e-02f, 1.004778128e-02f, -4.010012373e-02f, 2.277082391e-02f, -1.232376229e-02f, -2.574541979e-02f, -1.804140769e-02f, 3.270210000e-03f, -1.689237356e-02f, 7.981778122e-03f, 9.773175232e-03f, -4.494165629e-02f, 1.302303281e-02f, 5.762821995e-03f, -1.798717864e-02f, 4.837851040e-03f, 4.060989013e-04f, -2.843103185e-02f, 3.251212183e-03f, 1.106970292e-02f, -3.222821513e-03f, 3.473686986e-03f, -2.905324474e-02f, -1.330406289e-03f, -1.587458327e-02f, -8.470379747e-03f, -9.701267816e-03f, -1.820705831e-02f, 1.050325856e-02f, -7.864362560e-03f, 1.452494645e-03f, -2.372956602e-03f, 1.993479952e-02f, 6.934608798e-03f, -3.207752854e-02f, 7.746694610e-04f, -1.118079852e-02f, -3.260360099e-03f, 1.519396529e-02f, -7.880548947e-03f, 9.220995940e-03f, -1.683498360e-02f, 1.512374636e-02f, 1.284244005e-02f, 4.641851876e-03f, 4.161708802e-02f, 2.432735823e-02f, -1.558056008e-02f, 6.499886513e-04f, -3.051515110e-02f, -5.535357195e-05f, 3.011504654e-03f, 4.235969856e-03f, 1.175585855e-02f, -6.367710303e-04f, 4.258921836e-03f, -2.311053220e-03f, -3.461513843e-04f, -1.456519589e-02f, -3.114794940e-02f, -1.483812742e-02f, 6.706200074e-03f, 9.255253710e-03f, -1.881346665e-02f, 2.603168227e-02f, -1.297877729e-02f, -1.860994473e-02f, 1.763965120e-03f, -1.070737932e-02f, -1.500541437e-02f, -1.350435894e-03f, 4.090339690e-02f, -1.942813769e-02f, -1.371093094e-02f, -1.379669178e-02f, -2.947576717e-02f, 1.049095020e-02f, 2.456674352e-02f, -2.488477901e-02f, -1.507567987e-02f, -2.449861728e-02f, -8.498534560e-03f, -8.710707538e-03f, -1.015631296e-02f, 1.241558883e-02f, 4.579175729e-03f, -8.996574208e-03f, 1.823190600e-02f, 3.725632327e-03f, -2.656747960e-02f, 1.684822701e-02f, 6.489519496e-03f, -3.010686487e-03f, 9.209455922e-03f, -4.976983741e-02f, -1.686018147e-02f, -2.040181309e-02f, -1.253804285e-02f, 9.874055162e-03f, -1.300900709e-03f, 8.276386186e-03f, -5.225040019e-02f, -2.504666336e-03f, 4.167099483e-03f, 5.972343031e-03f, -4.048451316e-03f, 5.970632285e-02f, 1.840831712e-02f, -4.139220715e-02f, 2.055710880e-03f, 6.092155352e-03f, 2.196749859e-02f, -3.526670160e-03f, 3.868343681e-02f, -1.072035450e-02f, 1.529285125e-02f, -2.986088023e-02f, 9.529260918e-03f, -2.084934153e-02f, -8.052770980e-03f, -1.026032399e-02f, -1.193562173e-03f, 1.838451996e-02f, -8.371523581e-03f, 1.474120934e-02f, 4.145836085e-02f, -1.275876164e-02f, -3.907790780e-02f, -2.651010267e-02f, -6.770558655e-03f, 1.506404206e-02f, -1.998744532e-02f, 3.331264108e-02f, -3.115478717e-02f, -2.020563744e-02f, -3.726538271e-03f, -4.702097736e-03f, 1.598887891e-02f, -3.078483045e-02f, -1.634391258e-03f, 5.199146923e-03f, 5.096600391e-03f, 7.716285181e-04f, -6.852099323e-04f, 5.259420723e-02f, 2.856966853e-02f, 1.378536411e-02f, -4.481814336e-03f, -4.599909764e-03f, -6.949614733e-03f, -2.115879208e-02f, 1.008016896e-02f, -1.248651533e-03f, -8.252766915e-03f, -1.983038895e-02f, 1.865739375e-02f, -1.592601649e-02f, -8.562780917e-03f, -2.572048828e-02f, 1.507851947e-02f, 1.926782168e-02f, 2.907620184e-02f, -3.397032246e-02f, 9.138090536e-03f, -1.066509262e-02f, -1.089623198e-02f, -1.860436238e-02f, -1.381855458e-02f, 7.211187389e-03f, -2.060184628e-02f, -5.610886589e-02f, 2.086133696e-02f, -3.894152818e-03f, 1.250837557e-02f, 3.074006550e-02f, 3.544808179e-02f, 1.872438937e-02f, -6.272293627e-03f, 1.743815839e-02f, -7.846337394e-04f, -2.641573921e-02f, -2.507691272e-02f, 2.095285803e-02f, -5.650605541e-03f, 1.459144522e-02f, 1.927094162e-02f, 2.481545787e-03f, 1.422045473e-02f, -7.739795838e-03f, -2.226916887e-02f, 1.732068695e-02f, -2.304767258e-02f, 9.992121719e-03f, 1.325866207e-02f, -6.300762296e-03f, -4.397807643e-02f, -2.535137534e-02f, 3.527976573e-02f, -3.432284668e-02f, -2.050290257e-02f, -2.241852880e-02f, 2.556906827e-02f, -3.183901310e-02f, -3.337340197e-03f, -1.490122639e-02f, -4.591584951e-02f, -2.211628109e-02f, -5.308045074e-03f, 5.424344447e-03f, -2.050557733e-02f, -3.678547218e-02f, -4.423003644e-03f, 1.024932042e-02f, 2.250685915e-02f, 1.403506100e-02f, -1.467026118e-02f, 7.435637992e-03f, -2.927889815e-03f, 3.828995302e-02f, -6.198692136e-03f, 2.205290459e-02f, -1.575513370e-02f, -1.611051336e-02f, 2.566705830e-02f, 4.564286023e-02f, -5.297788605e-02f, -1.589186303e-02f, 7.019307464e-03f, -2.812005952e-02f, -6.269495934e-03f, -3.423462063e-02f, -1.656630076e-02f, -5.757006817e-03f, 1.145483577e-03f, 2.077590115e-02f, -2.995841205e-02f, 5.454699043e-03f, 1.849965937e-02f, 1.270351466e-02f, 2.616248094e-02f, -3.421728499e-03f, -6.877774722e-04f, 1.428266894e-02f, -4.118330777e-03f, 1.212408859e-02f, 3.935385030e-03f, 3.858531360e-03f, 1.225337386e-02f, 2.422578074e-02f, -2.120567672e-02f, 2.357415669e-02f, -3.805197403e-02f, -1.784652821e-03f, 1.201373432e-02f, -1.828080975e-02f, 2.229350805e-02f, -1.790336519e-02f, 7.105306257e-03f, 3.781539621e-03f, -1.232066937e-02f, -5.810506176e-03f, 1.194308698e-02f, 1.735150814e-02f, -1.987140439e-02f, 7.321662270e-03f, 2.711926214e-02f, -3.951895982e-02f, 7.957591675e-03f, -8.484059363e-04f, 1.391639840e-02f, -3.271168331e-03f, 1.797391288e-02f, -2.093406953e-02f, -2.939510904e-02f, -1.187897869e-03f, -4.573371261e-02f, 2.607898600e-02f, -1.281620376e-02f, -1.125188661e-03f, -1.887683384e-02f, -8.754763403e-04f, 2.728759684e-02f, 9.938901290e-03f, 4.403295740e-02f, 5.247246474e-03f, 7.775348146e-03f, -3.270094469e-02f, -2.340970747e-02f, 1.067786291e-02f, -4.710884765e-02f, -1.912783645e-02f, -1.224098820e-02f, -2.920007706e-02f, 3.427789360e-02f, 3.892097389e-03f, -2.848321386e-02f, 1.835525618e-03f, -7.741826586e-03f, 3.538004588e-03f, 1.437355764e-02f, -4.624391906e-03f, 1.785967313e-02f, 3.674793616e-02f, -1.164811105e-02f, -2.226398792e-03f, 1.332390960e-02f, -8.524369332e-04f, 5.041193217e-03f, 2.561680228e-02f, -2.137610316e-02f, -3.067800775e-02f, -1.467412221e-03f, 2.470253222e-02f, 2.617486939e-02f, -7.519899867e-03f, 1.679888740e-02f, 2.110852674e-02f, 1.014534850e-02f, -7.149387617e-03f, 2.987448871e-02f, 1.256562583e-02f, 1.358106732e-02f, -1.991970092e-02f, 3.070083074e-02f, -4.358002916e-03f, 2.740008943e-02f, -3.809314594e-02f, 2.369344980e-02f, -3.886439372e-03f, 7.794749457e-03f, 3.047441505e-02f, -3.331620991e-02f, 1.948839054e-03f, -3.467007307e-03f, 7.894535549e-03f, -2.243291819e-03f, 1.002927683e-02f, 2.233721130e-02f, 3.568523005e-02f, 1.079574414e-02f, 2.531563677e-02f, -2.614526451e-02f, -3.394526988e-02f, 2.199250460e-02f, -8.476353250e-03f, 1.476363163e-03f, -5.303551909e-03f, -2.351451106e-02f, 4.839366302e-02f, 4.662335664e-02f, -2.172356099e-02f, 4.414956085e-03f, -8.571469225e-03f, -5.638486706e-03f, 1.182699855e-02f, -5.534938071e-03f, 9.201770648e-03f, 1.004476286e-02f, -1.203314029e-02f, 3.815187886e-02f, 2.664098144e-02f, 8.830860257e-03f, 1.242929231e-02f, 9.574753232e-03f, -2.009086497e-02f, -1.273694262e-02f, 2.095365711e-02f, -1.244008541e-03f, -2.024057135e-02f, -1.182828750e-02f, -9.299993515e-03f, 3.842733428e-02f, -2.624579356e-04f, 4.430143163e-02f, 6.258426234e-03f, 2.890312346e-03f, 1.228731591e-02f, -3.781546606e-03f, -8.205268532e-03f, -2.894138545e-02f, -8.331672288e-03f, -1.149526890e-02f, -8.148094639e-03f, -9.787248448e-03f, -1.662601717e-02f, -1.593121793e-03f, -2.815634385e-02f, 6.105659995e-03f, 1.153608505e-02f, 5.020510033e-02f, 3.515364602e-02f, -2.014932409e-02f, 9.506329894e-03f, -3.255312331e-03f, 7.016877178e-03f, -1.223458676e-03f, 2.295213006e-02f, -1.113108825e-02f, 3.392982855e-02f, -2.354411595e-02f, -3.093049861e-03f, 1.502016280e-02f, -8.532983251e-03f, -7.617578958e-04f, 2.319997549e-02f, -2.902475535e-04f, 1.213637460e-02f, 3.011891246e-02f, 1.831307635e-02f, -4.471652675e-03f, -2.306205966e-02f, -1.984604448e-02f, 2.338602208e-02f, 9.784756228e-03f, 1.326268539e-02f, -3.785883635e-02f, 2.910969406e-02f, -1.621966995e-02f, -4.999089288e-04f, -1.077271998e-02f, 7.906917483e-03f, -9.720713831e-03f, 2.072545467e-03f, -4.827098921e-02f, 6.109738257e-03f, 4.795196466e-03f, 3.150955960e-02f, 1.377400476e-02f, -2.009756304e-02f, 1.159199793e-02f, -1.064881217e-02f, -1.339281909e-02f, -2.031343617e-02f, 3.513568267e-02f, -3.179766238e-03f, -7.925181650e-03f, -7.714310288e-02f, -2.729748189e-02f, -2.083855309e-02f, -1.040992909e-03f, -1.221204759e-03f, 2.456129878e-04f, 3.389171325e-03f, 6.713111419e-03f, -3.727941215e-02f, -4.666664824e-02f, -1.684668288e-02f, -1.052022912e-02f, 3.554216353e-03f, 1.545197447e-03f, -3.374516591e-02f, 9.259871207e-03f, 2.826359868e-02f, 1.687288098e-02f, 1.742296107e-02f, -1.825278974e-03f, -2.420602553e-02f, 8.615297265e-03f, -1.507973205e-02f, -3.349191695e-02f, 1.061582286e-02f, -5.730880890e-03f, -6.364816218e-04f, 9.892447852e-04f, 2.129275817e-03f, 1.093061920e-02f, -2.419725806e-02f, -8.169194683e-03f, 1.579753496e-02f, 5.680038594e-03f, 1.802332466e-03f, 1.853850484e-02f, -4.872156307e-03f, -2.872397890e-03f, -1.570782065e-02f, 2.394201234e-02f, -2.396748774e-02f, 1.490152720e-02f, 3.240766749e-02f, 1.958037168e-02f, -1.907883026e-02f, -2.679143287e-02f, 6.263549905e-03f, 1.182632148e-02f, -8.747118409e-05f, 1.325711608e-03f, 1.761673577e-02f, -6.715345196e-03f, 2.004547790e-02f, 9.898089804e-03f, -8.402338251e-03f, -2.505083103e-03f, -1.252448931e-02f, -1.861892454e-02f, -1.013774611e-02f, 2.886050614e-03f, -2.597820759e-02f, -3.707353608e-04f, -1.414798200e-02f, 1.858874783e-02f, -2.551152557e-02f, 1.492926572e-02f, -2.946688607e-02f, -1.619250327e-02f, 9.596750606e-04f, 4.448739439e-02f, -1.164962631e-02f, 3.688903991e-03f, 2.644120157e-02f, 2.754562348e-02f, -6.827246398e-03f, -8.859906346e-03f, -7.298625074e-03f, 3.222409636e-02f, 2.995864861e-02f, 3.157179058e-02f, -2.263163775e-02f, -2.020851150e-02f, 1.642580330e-02f, 1.597556658e-02f, -5.594544113e-03f, -2.568218671e-02f, 1.552862395e-02f, 2.328958921e-02f, -5.678637885e-03f, -1.688793418e-03f, -5.103133619e-03f, 2.231225930e-02f, 1.351851318e-02f, 2.063294873e-02f, 1.253144722e-02f, 4.640168918e-04f, 1.192336553e-03f, 2.634922042e-02f, -3.410419682e-03f, 8.444625884e-03f, -2.965462394e-03f, 2.143041790e-02f, 4.390844551e-04f, 1.156581379e-02f, 4.541287944e-02f, 1.031989930e-03f, 2.820925228e-02f, -3.070872743e-03f, 1.415769290e-02f, -4.072377086e-02f, 2.805936849e-03f, -1.199915260e-02f, -1.365241501e-02f, 1.503152959e-02f, 1.988869905e-02f, -2.448166779e-04f, -1.147260610e-02f, 1.814976893e-02f, 1.844676025e-02f, -2.778404020e-02f, 2.008401789e-02f, 6.840325426e-03f, -4.663063679e-03f, -9.317994118e-03f, 2.609889768e-02f, -9.444723837e-04f, 2.543616667e-02f, -2.499032766e-02f, -1.161614899e-02f, -2.079103887e-02f, -1.711423136e-02f, -1.137138903e-02f, 2.010030672e-03f, -8.512988687e-03f, -9.053252288e-04f, -2.886264026e-02f, -2.817459777e-02f, -3.651026264e-02f, -3.503370099e-03f, 2.034443058e-02f, -3.895001719e-03f, -5.171776284e-03f, -2.539884485e-02f, -9.093350673e-05f, -2.893728949e-02f, 2.664387412e-02f, 1.707618311e-02f, 1.495826244e-02f, -1.491473871e-03f, -9.152615443e-03f, -2.884351881e-03f, -2.446539141e-02f, 5.539591890e-03f, 2.393199131e-02f, -1.793958247e-02f, -1.641592011e-02f, 3.180595860e-02f, -2.868573926e-02f, 3.875850886e-02f, 2.716111485e-04f, 1.227911003e-02f, -2.746463940e-02f, 1.331332698e-02f, 5.198249128e-03f, -2.157290094e-02f, 1.057409495e-02f, 2.513116039e-02f, 4.242724273e-03f, 1.971522532e-02f, -5.003399402e-02f, -5.364498589e-03f, -2.601513267e-02f, 4.369658232e-02f, -1.370143238e-02f, 3.732519597e-02f, -2.974624746e-02f, 2.864048630e-02f, 1.883122511e-02f, 2.833392471e-03f, 4.315566737e-03f, -3.634816036e-02f, -1.765380800e-02f, -5.996143911e-03f, 3.857849166e-02f, -5.832186900e-03f, -1.783655770e-02f, 7.424948271e-03f, 2.171300165e-02f, -3.788100556e-02f, 2.392719500e-02f, 2.854039520e-02f, -2.445671940e-03f, 2.369240858e-02f, 5.540734273e-04f, 1.352341613e-03f, 1.057578065e-02f, 1.787195913e-02f, 5.816101097e-03f, 1.444221707e-03f, -1.202956308e-02f, 2.313881367e-02f, -2.027465962e-03f, 4.135931283e-02f, 1.098013110e-02f, -2.738053910e-02f, -4.570614547e-03f, 1.512244064e-02f, -9.052318521e-03f, -4.254165571e-03f, 2.123039588e-02f, -3.653701060e-05f, -1.597348601e-02f, -6.155089010e-03f, 1.440830994e-02f, -2.064165601e-04f, 3.401294723e-02f, -1.702416688e-02f, -1.661176234e-02f, 1.535797783e-04f, 2.924030880e-03f, 8.570715785e-03f, 7.050216198e-03f, -3.269254416e-02f, 1.541297883e-02f, 1.386481151e-02f, -4.379996285e-02f, -1.953970827e-02f, 1.450150553e-02f, -8.933708887e-04f, -9.739125147e-03f, -6.880686618e-03f, 1.159926411e-02f, 4.463322461e-03f, 3.409168450e-03f, 5.012524500e-02f, 2.030849084e-02f, -1.288477983e-02f, 7.202045526e-03f, -5.449758098e-02f, -4.388887901e-03f, 2.194504952e-03f, 6.217805669e-03f, 5.783894565e-03f, -1.832447760e-02f, -1.133802626e-02f, -1.292465534e-02f, -4.715912510e-03f, -7.007829379e-03f, 4.367070273e-03f, 9.336589836e-03f, 1.072113286e-03f, -2.242824808e-02f, -2.177222632e-02f, 3.448096104e-03f, -1.370569691e-03f, -3.633804992e-02f, -1.661788486e-02f, 3.569683060e-02f, 1.226578839e-02f, -1.116096321e-02f, 4.240965471e-03f, 1.952766068e-02f, -1.936752349e-02f, 3.370156512e-03f, -1.126769348e-03f, 2.969834767e-02f, 2.336060442e-02f, -3.239171114e-03f, -2.014633641e-02f, 3.200492635e-02f, -1.893019676e-02f, -2.357308567e-02f, 3.269424895e-03f, 2.026588097e-02f, 3.327998146e-02f, 1.871434599e-02f, -5.346073769e-03f, 2.025935426e-02f, 1.175233349e-02f, -1.768550463e-02f, -3.506967099e-03f, 2.098350786e-02f, -4.201931506e-02f, -8.718639612e-03f, 1.458808780e-02f, 3.625345416e-03f, 3.490460664e-02f, -1.046549156e-02f, 1.010833215e-02f, 1.694094576e-02f, -2.228912339e-02f, -2.705845982e-02f, 7.884459570e-03f, 1.572476514e-02f, -1.800211705e-02f, -1.449616160e-02f, -1.348772459e-02f, -1.232421491e-02f, -1.258284505e-02f, 1.696622744e-02f, -1.141037559e-03f, -1.068366878e-02f, 1.831684820e-02f, 1.379102096e-02f, 1.036094036e-02f, -2.801428549e-02f, 1.335238386e-02f, 3.235332668e-02f, 3.347209468e-02f, -2.669521421e-02f, 1.446945034e-02f, 6.903102621e-03f, 1.323414221e-02f, 3.762543201e-02f, -2.195835486e-02f, -3.400843590e-03f, 9.394456865e-04f, -1.509589888e-02f, -1.451315358e-02f, -5.563440267e-03f, 3.297351359e-04f, 3.051980026e-02f, 5.129557103e-03f, 2.846257389e-02f, 3.026927449e-02f, 2.136444300e-02f, 1.716479473e-02f, -1.530174259e-02f, 1.544042770e-02f, -6.481483579e-03f, 1.232620422e-02f, -6.378860213e-03f, 1.151262037e-02f, 2.547085518e-03f, 1.582216658e-02f, -1.759812422e-02f, -4.080210254e-02f, -8.711067028e-03f, -7.698051631e-03f, -8.062638342e-03f, -2.779162489e-03f, 1.598662115e-03f, -6.358579267e-03f, 1.748607866e-02f, -1.950720698e-02f, 2.158706635e-02f, 1.757319085e-02f, 2.965358458e-02f, 3.015619889e-02f, -1.776258345e-03f, -2.509460784e-02f, 2.430501021e-02f, 1.189248450e-02f, 1.311406214e-02f, 2.190718427e-02f, -1.819783449e-02f, 4.183683777e-04f, 6.150033791e-03f, -2.058267593e-03f, -8.527451195e-03f, 6.450394634e-03f, 3.038205393e-02f, 2.922713989e-03f, -3.676317260e-02f, 2.196843550e-02f, 1.012857538e-02f, -1.235985104e-02f, 2.739973366e-03f, -1.557688788e-02f, -1.656615734e-02f, -6.521018222e-03f, -7.174219936e-03f, -6.925181486e-03f, 2.665846795e-02f, -1.297422219e-02f, 1.441731863e-02f, 3.321656212e-02f, -1.608699933e-02f, -8.469035849e-03f, -2.102552541e-02f, 6.582379341e-03f, -7.755145431e-03f, 5.985030439e-03f, 3.198619187e-02f, -3.230389673e-03f, 6.658912636e-03f, 5.541942641e-02f, 1.689954661e-02f, 2.950879931e-02f, -1.439883467e-02f, 7.922805846e-03f, 4.438909702e-03f, 1.400459185e-02f, -9.025332518e-03f, 7.355482318e-03f, 9.572688490e-03f, -3.625734011e-03f, -1.450288692e-03f, 2.883401699e-03f, 2.611968294e-02f, -2.728258818e-02f, 2.144997381e-02f, 3.319440410e-02f, -1.604408585e-02f, 6.425106898e-03f, -4.802774638e-03f, -2.929151990e-02f, -2.519369358e-03f, 1.097601466e-02f, 1.533115562e-02f, -1.583905891e-03f, -3.123668139e-04f, 3.860698780e-03f, -1.251396164e-02f, -1.543097384e-02f, 1.392585039e-02f, 2.297546342e-02f, 2.920073457e-03f, -5.730520468e-03f, -2.372142673e-02f, -1.070824452e-02f, 2.688961290e-02f, 5.753451493e-03f, -1.570994779e-02f, -5.543719977e-03f, -2.896820009e-02f, 4.564305767e-02f, -3.430774063e-02f, 3.140876768e-03f, -2.612973005e-02f, -1.000156347e-02f, -3.425161820e-03f, -2.971038595e-02f, -2.868437208e-03f, -2.253601514e-02f, -2.884406410e-02f, -3.491961583e-02f, 3.986421600e-02f, -1.077409368e-03f, 4.539281130e-03f, -1.895488054e-02f, 4.043167830e-02f, -7.031006389e-04f, 1.842876337e-02f, -1.437201817e-02f, 7.643342018e-03f, -1.537607750e-03f, -9.618801065e-03f, -2.683671005e-02f, -3.239420056e-02f, 5.905593280e-04f, -5.257281940e-03f, -2.307149349e-03f, -1.746226661e-02f, -2.854355797e-02f, 9.436121210e-03f, -3.294416890e-02f, -3.742072266e-03f, -2.016972750e-02f, 6.377174053e-03f, -1.467989571e-02f, 1.373919542e-03f, 2.366243117e-02f, -2.361275628e-02f, 1.727454178e-02f, 2.841417305e-02f, 1.246793475e-02f, 5.833021365e-03f, 2.182542533e-02f, -2.415985987e-02f, -1.448826026e-02f, 2.051342279e-02f, 3.430010518e-03f, -2.277747355e-02f, -1.712365891e-03f, -1.449984149e-03f, 5.234641489e-03f, 2.813756652e-02f, -4.315498099e-02f, -1.823811419e-02f, 1.870665886e-02f, 5.005338416e-02f, 1.911174320e-02f, 5.032282323e-03f, -1.765507646e-02f, -2.323017269e-02f, 2.638188377e-02f, 8.231048472e-03f, -1.843287144e-03f, -1.295775175e-02f, -2.010884928e-03f, -2.513954649e-03f, -2.201347239e-02f, 3.018311458e-03f, -1.648529992e-02f, -2.255425788e-03f, -2.277799882e-02f, 1.360881049e-02f, 1.360465400e-02f, -1.294010412e-02f, 8.372614160e-03f, 2.511012927e-02f, 1.663198881e-02f, 1.480244379e-02f, -3.915276378e-02f, -3.142165020e-02f, 7.375136949e-03f, -1.348147169e-02f, -5.813130736e-02f, -6.752942223e-03f, 1.924249902e-02f, 1.885548234e-02f, -3.281353787e-02f, 4.792273790e-02f, -4.262157308e-04f, -5.325013772e-03f, 6.997302175e-03f, -2.767810831e-03f, 1.453481149e-02f, 2.023262717e-02f, 3.124862537e-02f, -2.841635421e-02f, 3.677386791e-02f, 1.091668569e-02f, 1.734594814e-02f, 1.945586689e-02f, 1.030538790e-02f, -1.855609939e-02f, -3.973928280e-03f, -3.514884971e-03f, 2.380752750e-02f, -4.932118580e-03f, -5.805241875e-03f, -7.465256844e-03f, -9.264732711e-03f, -2.958160592e-03f, 2.483004471e-03f, -7.546932437e-03f, -7.544413675e-03f, 2.259276249e-02f, -8.445352316e-03f, 2.138794214e-02f, -2.472449793e-03f, -3.367932746e-03f, 7.033182774e-03f, -4.145232961e-02f, 5.639879499e-03f, 1.081105880e-02f, -7.170090917e-03f, 3.440172970e-02f, -1.085339859e-02f, 7.648787927e-03f, 1.495832019e-02f, 3.782549873e-02f, -1.199563872e-02f, -4.613126162e-03f, 2.430134453e-02f, 1.823123917e-02f, 2.039201371e-02f, -3.494718811e-03f, 2.982053719e-02f, -1.056383457e-02f, -1.741833240e-02f, 2.720690519e-02f, -3.512091935e-03f, 4.470596468e-05f, -2.559315413e-02f, 1.245126687e-02f, 1.620989852e-02f, -2.413707972e-02f, 3.524151072e-02f, 1.081803441e-02f, 8.213101886e-03f, 1.265348308e-02f, -2.359658852e-02f, -3.344881162e-02f, 4.682967483e-05f, 1.541068777e-02f, -1.346500125e-02f, 1.292835083e-02f, 1.599762775e-02f, -2.029487863e-02f, 1.290351618e-03f, 2.305472828e-02f, -2.283792198e-02f, 2.002686262e-03f, 1.007900294e-02f, 5.768075585e-03f, -1.256063953e-02f, 5.019729026e-03f, 1.697261445e-02f, 7.089783903e-03f, -3.904023906e-03f, 2.464803867e-02f, 7.311979309e-03f, -4.001294449e-02f, -6.157943513e-03f, -1.158455387e-02f, -3.488381580e-02f, -2.191244252e-02f, 1.260804664e-02f, 1.683097146e-02f, 2.605564147e-02f, 3.708877135e-03f, 1.024353970e-02f, 9.556527250e-03f, 1.263019908e-02f, 1.502208691e-02f, -1.636645291e-03f, 1.154094748e-02f, -2.283774782e-03f, 3.735762788e-03f, 1.291245222e-02f, -1.407572441e-02f, 3.350730520e-03f, 1.449338440e-02f, -2.064340748e-02f, 